network unknown {
}
variable X13 {
    type discrete [ 20 ] { 0.0, 1.0, 2.0, 3.0, 4.0, 5.0, 6.0, 7.0, 8.0, 9.0, 10.0, 11.0, 12.0, 13.0, 14.0, 15.0, 16.0, 17.0, 18.0, 19.0 };
}
variable X21 {
    type discrete [ 20 ] { 0.0, 1.0, 2.0, 3.0, 4.0, 5.0, 6.0, 7.0, 8.0, 9.0, 10.0, 11.0, 12.0, 13.0, 14.0, 15.0, 16.0, 17.0, 18.0, 19.0 };
}
variable X27 {
    type discrete [ 20 ] { 0.0, 1.0, 2.0, 3.0, 4.0, 5.0, 6.0, 7.0, 8.0, 9.0, 10.0, 11.0, 12.0, 13.0, 14.0, 15.0, 16.0, 17.0, 18.0, 19.0 };
}
variable X28 {
    type discrete [ 20 ] { 0.0, 1.0, 2.0, 3.0, 4.0, 5.0, 6.0, 7.0, 8.0, 9.0, 10.0, 11.0, 12.0, 13.0, 14.0, 15.0, 16.0, 17.0, 18.0, 19.0 };
}
variable X32 {
    type discrete [ 20 ] { 0.0, 1.0, 2.0, 3.0, 4.0, 5.0, 6.0, 7.0, 8.0, 9.0, 10.0, 11.0, 12.0, 13.0, 14.0, 15.0, 16.0, 17.0, 18.0, 19.0 };
}
variable X33 {
    type discrete [ 20 ] { 0.0, 1.0, 2.0, 3.0, 4.0, 5.0, 6.0, 7.0, 8.0, 9.0, 10.0, 11.0, 12.0, 13.0, 14.0, 15.0, 16.0, 17.0, 18.0, 19.0 };
}
variable X34 {
    type discrete [ 20 ] { 0.0, 1.0, 2.0, 3.0, 4.0, 5.0, 6.0, 7.0, 8.0, 9.0, 10.0, 11.0, 12.0, 13.0, 14.0, 15.0, 16.0, 17.0, 18.0, 19.0 };
}
variable X36 {
    type discrete [ 20 ] { 0.0, 1.0, 2.0, 3.0, 4.0, 5.0, 6.0, 7.0, 8.0, 9.0, 10.0, 11.0, 12.0, 13.0, 14.0, 15.0, 16.0, 17.0, 18.0, 19.0 };
}
variable X37 {
    type discrete [ 20 ] { 0.0, 1.0, 2.0, 3.0, 4.0, 5.0, 6.0, 7.0, 8.0, 9.0, 10.0, 11.0, 12.0, 13.0, 14.0, 15.0, 16.0, 17.0, 18.0, 19.0 };
}
variable X4 {
    type discrete [ 20 ] { 0.0, 1.0, 2.0, 3.0, 4.0, 5.0, 6.0, 7.0, 8.0, 9.0, 10.0, 11.0, 12.0, 13.0, 14.0, 15.0, 16.0, 17.0, 18.0, 19.0 };
}
variable X40 {
    type discrete [ 20 ] { 0.0, 1.0, 2.0, 3.0, 4.0, 5.0, 6.0, 7.0, 8.0, 9.0, 10.0, 11.0, 12.0, 13.0, 14.0, 15.0, 16.0, 17.0, 18.0, 19.0 };
}
variable X41 {
    type discrete [ 20 ] { 0.0, 1.0, 2.0, 3.0, 4.0, 5.0, 6.0, 7.0, 8.0, 9.0, 10.0, 11.0, 12.0, 13.0, 14.0, 15.0, 16.0, 17.0, 18.0, 19.0 };
}
variable X45 {
    type discrete [ 20 ] { 0.0, 1.0, 2.0, 3.0, 4.0, 5.0, 6.0, 7.0, 8.0, 9.0, 10.0, 11.0, 12.0, 13.0, 14.0, 15.0, 16.0, 17.0, 18.0, 19.0 };
}
variable X46 {
    type discrete [ 20 ] { 0.0, 1.0, 2.0, 3.0, 4.0, 5.0, 6.0, 7.0, 8.0, 9.0, 10.0, 11.0, 12.0, 13.0, 14.0, 15.0, 16.0, 17.0, 18.0, 19.0 };
}
variable X47 {
    type discrete [ 20 ] { 0.0, 1.0, 2.0, 3.0, 4.0, 5.0, 6.0, 7.0, 8.0, 9.0, 10.0, 11.0, 12.0, 13.0, 14.0, 15.0, 16.0, 17.0, 18.0, 19.0 };
}
variable X50 {
    type discrete [ 20 ] { 0.0, 1.0, 2.0, 3.0, 4.0, 5.0, 6.0, 7.0, 8.0, 9.0, 10.0, 11.0, 12.0, 13.0, 14.0, 15.0, 16.0, 17.0, 18.0, 19.0 };
}
variable X52 {
    type discrete [ 20 ] { 0.0, 1.0, 2.0, 3.0, 4.0, 5.0, 6.0, 7.0, 8.0, 9.0, 10.0, 11.0, 12.0, 13.0, 14.0, 15.0, 16.0, 17.0, 18.0, 19.0 };
}
variable X53 {
    type discrete [ 20 ] { 0.0, 1.0, 2.0, 3.0, 4.0, 5.0, 6.0, 7.0, 8.0, 9.0, 10.0, 11.0, 12.0, 13.0, 14.0, 15.0, 16.0, 17.0, 18.0, 19.0 };
}
variable X54 {
    type discrete [ 20 ] { 0.0, 1.0, 2.0, 3.0, 4.0, 5.0, 6.0, 7.0, 8.0, 9.0, 10.0, 11.0, 12.0, 13.0, 14.0, 15.0, 16.0, 17.0, 18.0, 19.0 };
}
variable X55 {
    type discrete [ 20 ] { 0.0, 1.0, 2.0, 3.0, 4.0, 5.0, 6.0, 7.0, 8.0, 9.0, 10.0, 11.0, 12.0, 13.0, 14.0, 15.0, 16.0, 17.0, 18.0, 19.0 };
}
variable X60 {
    type discrete [ 20 ] { 0.0, 1.0, 2.0, 3.0, 4.0, 5.0, 6.0, 7.0, 8.0, 9.0, 10.0, 11.0, 12.0, 13.0, 14.0, 15.0, 16.0, 17.0, 18.0, 19.0 };
}
variable X63 {
    type discrete [ 20 ] { 0.0, 1.0, 2.0, 3.0, 4.0, 5.0, 6.0, 7.0, 8.0, 9.0, 10.0, 11.0, 12.0, 13.0, 14.0, 15.0, 16.0, 17.0, 18.0, 19.0 };
}
variable X64 {
    type discrete [ 20 ] { 0.0, 1.0, 2.0, 3.0, 4.0, 5.0, 6.0, 7.0, 8.0, 9.0, 10.0, 11.0, 12.0, 13.0, 14.0, 15.0, 16.0, 17.0, 18.0, 19.0 };
}
variable X9 {
    type discrete [ 20 ] { 0.0, 1.0, 2.0, 3.0, 4.0, 5.0, 6.0, 7.0, 8.0, 9.0, 10.0, 11.0, 12.0, 13.0, 14.0, 15.0, 16.0, 17.0, 18.0, 19.0 };
}
variable class {
    type discrete [ 2 ] { 0, 1 };
}
probability ( X13 | X21 ) {
    ( 0.0 ) 0.675, 0.25, 0.06666666666666667, 0.0, 0.008333333333333333, 0.0, 0.0, 0.0, 0.0, 0.0, 0.0, 0.0, 0.0, 0.0, 0.0, 0.0, 0.0, 0.0, 0.0, 0.0;
    ( 1.0 ) 0.25862068965517243, 0.3448275862068966, 0.2413793103448276, 0.11206896551724138, 0.008620689655172414, 0.034482758620689655, 0.0, 0.0, 0.0, 0.0, 0.0, 0.0, 0.0, 0.0, 0.0, 0.0, 0.0, 0.0, 0.0, 0.0;
    ( 2.0 ) 0.05128205128205128, 0.23931623931623933, 0.3333333333333333, 0.20512820512820512, 0.10256410256410256, 0.03418803418803419, 0.02564102564102564, 0.0, 0.008547008547008548, 0.0, 0.0, 0.0, 0.0, 0.0, 0.0, 0.0, 0.0, 0.0, 0.0, 0.0;
    ( 3.0 ) 0.0, 0.08035714285714286, 0.20535714285714285, 0.35714285714285715, 0.13392857142857142, 0.125, 0.0625, 0.03571428571428571, 0.0, 0.0, 0.0, 0.0, 0.0, 0.0, 0.0, 0.0, 0.0, 0.0, 0.0, 0.0;
    ( 4.0 ) 0.0, 0.02631578947368421, 0.06140350877192982, 0.17543859649122806, 0.32456140350877194, 0.23684210526315788, 0.07017543859649122, 0.03508771929824561, 0.043859649122807015, 0.02631578947368421, 0.0, 0.0, 0.0, 0.0, 0.0, 0.0, 0.0, 0.0, 0.0, 0.0;
    ( 5.0 ) 0.0, 0.0, 0.046296296296296294, 0.08333333333333333, 0.2037037037037037, 0.21296296296296297, 0.18518518518518517, 0.14814814814814814, 0.046296296296296294, 0.05555555555555555, 0.0, 0.009259259259259259, 0.0, 0.009259259259259259, 0.0, 0.0, 0.0, 0.0, 0.0, 0.0;
    ( 6.0 ) 0.0, 0.01834862385321101, 0.027522935779816515, 0.045871559633027525, 0.07339449541284404, 0.1559633027522936, 0.22018348623853212, 0.14678899082568808, 0.13761467889908258, 0.07339449541284404, 0.05504587155963303, 0.027522935779816515, 0.009174311926605505, 0.009174311926605505, 0.0, 0.0, 0.0, 0.0, 0.0, 0.0;
    ( 7.0 ) 0.0, 0.008849557522123894, 0.017699115044247787, 0.008849557522123894, 0.035398230088495575, 0.10619469026548672, 0.168141592920354, 0.23008849557522124, 0.17699115044247787, 0.168141592920354, 0.035398230088495575, 0.035398230088495575, 0.008849557522123894, 0.0, 0.0, 0.0, 0.0, 0.0, 0.0, 0.0;
    ( 8.0 ) 0.0, 0.0, 0.0, 0.0, 0.024793388429752067, 0.01652892561983471, 0.12396694214876033, 0.14049586776859505, 0.23140495867768596, 0.2066115702479339, 0.09917355371900827, 0.09090909090909091, 0.03305785123966942, 0.024793388429752067, 0.008264462809917356, 0.0, 0.0, 0.0, 0.0, 0.0;
    ( 9.0 ) 0.0, 0.0, 0.008928571428571428, 0.0, 0.017857142857142856, 0.05357142857142857, 0.03571428571428571, 0.11607142857142858, 0.17857142857142858, 0.15178571428571427, 0.1875, 0.15178571428571427, 0.044642857142857144, 0.03571428571428571, 0.008928571428571428, 0.0, 0.0, 0.008928571428571428, 0.0, 0.0;
    ( 10.0 ) 0.0, 0.008771929824561403, 0.008771929824561403, 0.0, 0.0, 0.008771929824561403, 0.03508771929824561, 0.03508771929824561, 0.12280701754385964, 0.16666666666666666, 0.24561403508771928, 0.14912280701754385, 0.14912280701754385, 0.043859649122807015, 0.02631578947368421, 0.0, 0.0, 0.0, 0.0, 0.0;
    ( 11.0 ) 0.0, 0.0, 0.009259259259259259, 0.009259259259259259, 0.018518518518518517, 0.009259259259259259, 0.027777777777777776, 0.009259259259259259, 0.027777777777777776, 0.10185185185185185, 0.17592592592592593, 0.25925925925925924, 0.17592592592592593, 0.12037037037037036, 0.018518518518518517, 0.037037037037037035, 0.0, 0.0, 0.0, 0.0;
    ( 12.0 ) 0.0, 0.0, 0.0, 0.0, 0.008403361344537815, 0.008403361344537815, 0.008403361344537815, 0.025210084033613446, 0.01680672268907563, 0.01680672268907563, 0.11764705882352941, 0.15126050420168066, 0.25210084033613445, 0.226890756302521, 0.08403361344537816, 0.06722689075630252, 0.01680672268907563, 0.0, 0.0, 0.0;
    ( 13.0 ) 0.0, 0.0, 0.0, 0.0, 0.0, 0.0, 0.0, 0.018867924528301886, 0.018867924528301886, 0.018867924528301886, 0.04716981132075472, 0.0660377358490566, 0.20754716981132076, 0.27358490566037735, 0.20754716981132076, 0.11320754716981132, 0.02830188679245283, 0.0, 0.0, 0.0;
    ( 14.0 ) 0.0, 0.0, 0.0, 0.0, 0.0, 0.0, 0.00909090909090909, 0.0, 0.0, 0.0, 0.02727272727272727, 0.02727272727272727, 0.045454545454545456, 0.20909090909090908, 0.3090909090909091, 0.22727272727272727, 0.1, 0.02727272727272727, 0.01818181818181818, 0.0;
    ( 15.0 ) 0.0, 0.0, 0.0, 0.0, 0.0, 0.0, 0.0, 0.018867924528301886, 0.009433962264150943, 0.018867924528301886, 0.0, 0.018867924528301886, 0.018867924528301886, 0.04716981132075472, 0.1509433962264151, 0.36792452830188677, 0.24528301886792453, 0.0660377358490566, 0.02830188679245283, 0.009433962264150943;
    ( 16.0 ) 0.0, 0.0, 0.0, 0.0, 0.0, 0.0, 0.0, 0.008620689655172414, 0.0, 0.0, 0.0, 0.0, 0.034482758620689655, 0.034482758620689655, 0.07758620689655173, 0.14655172413793102, 0.31896551724137934, 0.25, 0.12931034482758622, 0.0;
    ( 17.0 ) 0.0, 0.0, 0.0, 0.0, 0.0, 0.0, 0.0, 0.0, 0.0, 0.0, 0.0, 0.008547008547008548, 0.008547008547008548, 0.008547008547008548, 0.02564102564102564, 0.03418803418803419, 0.20512820512820512, 0.4358974358974359, 0.21367521367521367, 0.05982905982905983;
    ( 18.0 ) 0.0, 0.0, 0.0, 0.0, 0.0, 0.0, 0.0, 0.0, 0.009009009009009009, 0.0, 0.009009009009009009, 0.0, 0.0, 0.009009009009009009, 0.018018018018018018, 0.02702702702702703, 0.06306306306306306, 0.13513513513513514, 0.4954954954954955, 0.23423423423423423;
    ( 19.0 ) 0.0, 0.008130081300813009, 0.0, 0.0, 0.0, 0.0, 0.008130081300813009, 0.0, 0.0, 0.008130081300813009, 0.0, 0.0, 0.0, 0.008130081300813009, 0.032520325203252036, 0.032520325203252036, 0.024390243902439025, 0.04065040650406504, 0.10569105691056911, 0.7317073170731707;

}
probability ( X21 | X41 ) {
    ( 0.0 ) 0.6896551724137931, 0.16379310344827586, 0.034482758620689655, 0.0, 0.0, 0.0, 0.008620689655172414, 0.017241379310344827, 0.0, 0.008620689655172414, 0.017241379310344827, 0.008620689655172414, 0.0, 0.0, 0.008620689655172414, 0.017241379310344827, 0.0, 0.017241379310344827, 0.0, 0.008620689655172414;
    ( 1.0 ) 0.2727272727272727, 0.45454545454545453, 0.18181818181818182, 0.049586776859504134, 0.008264462809917356, 0.01652892561983471, 0.008264462809917356, 0.008264462809917356, 0.0, 0.0, 0.0, 0.0, 0.0, 0.0, 0.0, 0.0, 0.0, 0.0, 0.0, 0.0;
    ( 2.0 ) 0.027522935779816515, 0.25688073394495414, 0.4036697247706422, 0.12844036697247707, 0.08256880733944955, 0.009174311926605505, 0.027522935779816515, 0.009174311926605505, 0.01834862385321101, 0.0, 0.01834862385321101, 0.009174311926605505, 0.0, 0.0, 0.0, 0.0, 0.0, 0.009174311926605505, 0.0, 0.0;
    ( 3.0 ) 0.03636363636363636, 0.1, 0.20909090909090908, 0.34545454545454546, 0.12727272727272726, 0.05454545454545454, 0.02727272727272727, 0.02727272727272727, 0.01818181818181818, 0.01818181818181818, 0.02727272727272727, 0.0, 0.0, 0.00909090909090909, 0.0, 0.0, 0.0, 0.0, 0.0, 0.0;
    ( 4.0 ) 0.0, 0.017543859649122806, 0.10526315789473684, 0.22807017543859648, 0.2894736842105263, 0.17543859649122806, 0.06140350877192982, 0.03508771929824561, 0.03508771929824561, 0.008771929824561403, 0.0, 0.017543859649122806, 0.008771929824561403, 0.0, 0.0, 0.0, 0.008771929824561403, 0.0, 0.0, 0.008771929824561403;
    ( 5.0 ) 0.0, 0.008547008547008548, 0.042735042735042736, 0.08547008547008547, 0.23076923076923078, 0.18803418803418803, 0.20512820512820512, 0.08547008547008547, 0.08547008547008547, 0.03418803418803419, 0.008547008547008548, 0.017094017094017096, 0.0, 0.0, 0.0, 0.0, 0.008547008547008548, 0.0, 0.0, 0.0;
    ( 6.0 ) 0.0, 0.0, 0.02586206896551724, 0.05172413793103448, 0.13793103448275862, 0.22413793103448276, 0.19827586206896552, 0.09482758620689655, 0.10344827586206896, 0.06896551724137931, 0.034482758620689655, 0.04310344827586207, 0.008620689655172414, 0.0, 0.0, 0.0, 0.008620689655172414, 0.0, 0.0, 0.0;
    ( 7.0 ) 0.0, 0.0, 0.008620689655172414, 0.0, 0.05172413793103448, 0.1206896551724138, 0.15517241379310345, 0.3103448275862069, 0.15517241379310345, 0.11206896551724138, 0.017241379310344827, 0.04310344827586207, 0.008620689655172414, 0.017241379310344827, 0.0, 0.0, 0.0, 0.0, 0.0, 0.0;
    ( 8.0 ) 0.0, 0.0, 0.008695652173913044, 0.017391304347826087, 0.017391304347826087, 0.06086956521739131, 0.12173913043478261, 0.1565217391304348, 0.23478260869565218, 0.17391304347826086, 0.09565217391304348, 0.017391304347826087, 0.06086956521739131, 0.017391304347826087, 0.008695652173913044, 0.008695652173913044, 0.0, 0.0, 0.0, 0.0;
    ( 9.0 ) 0.0, 0.0, 0.0, 0.019801980198019802, 0.009900990099009901, 0.039603960396039604, 0.07920792079207921, 0.1188118811881188, 0.15841584158415842, 0.2376237623762376, 0.16831683168316833, 0.10891089108910891, 0.019801980198019802, 0.019801980198019802, 0.009900990099009901, 0.009900990099009901, 0.0, 0.0, 0.0, 0.0;
    ( 10.0 ) 0.0, 0.0, 0.0, 0.0, 0.0, 0.008771929824561403, 0.02631578947368421, 0.043859649122807015, 0.13157894736842105, 0.15789473684210525, 0.22807017543859648, 0.20175438596491227, 0.07894736842105263, 0.05263157894736842, 0.02631578947368421, 0.008771929824561403, 0.008771929824561403, 0.008771929824561403, 0.008771929824561403, 0.008771929824561403;
    ( 11.0 ) 0.0, 0.0, 0.0, 0.0, 0.0, 0.019230769230769232, 0.0, 0.019230769230769232, 0.057692307692307696, 0.0673076923076923, 0.15384615384615385, 0.22115384615384615, 0.2403846153846154, 0.11538461538461539, 0.04807692307692308, 0.009615384615384616, 0.019230769230769232, 0.009615384615384616, 0.0, 0.019230769230769232;
    ( 12.0 ) 0.0, 0.0, 0.0, 0.0, 0.0, 0.00847457627118644, 0.01694915254237288, 0.025423728813559324, 0.00847457627118644, 0.03389830508474576, 0.11016949152542373, 0.11016949152542373, 0.3220338983050847, 0.2033898305084746, 0.09322033898305085, 0.0423728813559322, 0.01694915254237288, 0.00847457627118644, 0.0, 0.0;
    ( 13.0 ) 0.0, 0.0, 0.008620689655172414, 0.0, 0.0, 0.008620689655172414, 0.008620689655172414, 0.0, 0.02586206896551724, 0.017241379310344827, 0.017241379310344827, 0.07758620689655173, 0.15517241379310345, 0.20689655172413793, 0.28448275862068967, 0.11206896551724138, 0.0603448275862069, 0.017241379310344827, 0.0, 0.0;
    ( 14.0 ) 0.0, 0.0, 0.0, 0.0, 0.0, 0.0, 0.0, 0.038834951456310676, 0.019417475728155338, 0.019417475728155338, 0.06796116504854369, 0.038834951456310676, 0.07766990291262135, 0.1553398058252427, 0.23300970873786409, 0.21359223300970873, 0.07766990291262135, 0.0, 0.038834951456310676, 0.019417475728155338;
    ( 15.0 ) 0.0, 0.0, 0.0, 0.0, 0.0, 0.0, 0.0, 0.0, 0.008620689655172414, 0.0, 0.02586206896551724, 0.0, 0.034482758620689655, 0.04310344827586207, 0.11206896551724138, 0.3448275862068966, 0.28448275862068967, 0.09482758620689655, 0.02586206896551724, 0.02586206896551724;
    ( 16.0 ) 0.0, 0.0, 0.0, 0.017857142857142856, 0.008928571428571428, 0.0, 0.0, 0.0, 0.0, 0.0, 0.0, 0.008928571428571428, 0.008928571428571428, 0.026785714285714284, 0.044642857142857144, 0.08035714285714286, 0.38392857142857145, 0.33035714285714285, 0.08035714285714286, 0.008928571428571428;
    ( 17.0 ) 0.0, 0.0, 0.0, 0.0, 0.0, 0.0, 0.0, 0.0, 0.0, 0.0, 0.008333333333333333, 0.0, 0.008333333333333333, 0.016666666666666666, 0.03333333333333333, 0.016666666666666666, 0.041666666666666664, 0.4166666666666667, 0.43333333333333335, 0.025;
    ( 18.0 ) 0.0, 0.0, 0.0, 0.009009009009009009, 0.0, 0.0, 0.0, 0.0, 0.0, 0.018018018018018018, 0.0, 0.0, 0.0, 0.009009009009009009, 0.02702702702702703, 0.036036036036036036, 0.036036036036036036, 0.05405405405405406, 0.2972972972972973, 0.5135135135135135;
    ( 19.0 ) 0.0, 0.0, 0.008130081300813009, 0.04065040650406504, 0.032520325203252036, 0.008130081300813009, 0.008130081300813009, 0.008130081300813009, 0.016260162601626018, 0.032520325203252036, 0.032520325203252036, 0.04878048780487805, 0.024390243902439025, 0.04878048780487805, 0.04878048780487805, 0.04065040650406504, 0.06504065040650407, 0.04065040650406504, 0.07317073170731707, 0.42276422764227645;

}
probability ( X27 | X13 ) {
    ( 0.0 ) 0.7350427350427351, 0.1282051282051282, 0.05982905982905983, 0.017094017094017096, 0.0, 0.008547008547008548, 0.0, 0.008547008547008548, 0.0, 0.0, 0.0, 0.0, 0.0, 0.0, 0.008547008547008548, 0.0, 0.0, 0.008547008547008548, 0.008547008547008548, 0.017094017094017096;
    ( 1.0 ) 0.2, 0.4434782608695652, 0.19130434782608696, 0.02608695652173913, 0.06956521739130435, 0.02608695652173913, 0.008695652173913044, 0.0, 0.008695652173913044, 0.0, 0.0, 0.0, 0.0, 0.0, 0.0, 0.0, 0.0, 0.0, 0.02608695652173913, 0.0;
    ( 2.0 ) 0.01694915254237288, 0.2966101694915254, 0.3559322033898305, 0.17796610169491525, 0.05084745762711865, 0.0, 0.0, 0.00847457627118644, 0.00847457627118644, 0.01694915254237288, 0.00847457627118644, 0.0, 0.0, 0.00847457627118644, 0.00847457627118644, 0.0, 0.00847457627118644, 0.00847457627118644, 0.0, 0.025423728813559324;
    ( 3.0 ) 0.0, 0.05309734513274336, 0.24778761061946902, 0.3274336283185841, 0.12389380530973451, 0.07079646017699115, 0.061946902654867256, 0.008849557522123894, 0.017699115044247787, 0.017699115044247787, 0.008849557522123894, 0.0, 0.017699115044247787, 0.0, 0.0, 0.0, 0.0, 0.0, 0.017699115044247787, 0.02654867256637168;
    ( 4.0 ) 0.0, 0.009259259259259259, 0.046296296296296294, 0.3055555555555556, 0.2962962962962963, 0.1388888888888889, 0.05555555555555555, 0.027777777777777776, 0.018518518518518517, 0.009259259259259259, 0.009259259259259259, 0.0, 0.018518518518518517, 0.018518518518518517, 0.0, 0.018518518518518517, 0.0, 0.0, 0.0, 0.027777777777777776;
    ( 5.0 ) 0.0, 0.008928571428571428, 0.0625, 0.1875, 0.26785714285714285, 0.25892857142857145, 0.08035714285714286, 0.044642857142857144, 0.026785714285714284, 0.0, 0.017857142857142856, 0.008928571428571428, 0.017857142857142856, 0.008928571428571428, 0.0, 0.0, 0.0, 0.0, 0.008928571428571428, 0.0;
    ( 6.0 ) 0.00909090909090909, 0.00909090909090909, 0.0, 0.045454545454545456, 0.14545454545454545, 0.24545454545454545, 0.23636363636363636, 0.14545454545454545, 0.03636363636363636, 0.02727272727272727, 0.02727272727272727, 0.00909090909090909, 0.0, 0.00909090909090909, 0.01818181818181818, 0.0, 0.0, 0.00909090909090909, 0.0, 0.02727272727272727;
    ( 7.0 ) 0.0, 0.0, 0.0, 0.0, 0.045871559633027525, 0.12844036697247707, 0.3119266055045872, 0.1926605504587156, 0.13761467889908258, 0.027522935779816515, 0.045871559633027525, 0.009174311926605505, 0.027522935779816515, 0.01834862385321101, 0.009174311926605505, 0.01834862385321101, 0.009174311926605505, 0.0, 0.009174311926605505, 0.009174311926605505;
    ( 8.0 ) 0.0, 0.0, 0.0, 0.0, 0.0, 0.06837606837606838, 0.19658119658119658, 0.24786324786324787, 0.1794871794871795, 0.1111111111111111, 0.05982905982905983, 0.008547008547008548, 0.02564102564102564, 0.008547008547008548, 0.017094017094017096, 0.017094017094017096, 0.017094017094017096, 0.0, 0.008547008547008548, 0.03418803418803419;
    ( 9.0 ) 0.008695652173913044, 0.008695652173913044, 0.0, 0.008695652173913044, 0.017391304347826087, 0.05217391304347826, 0.05217391304347826, 0.1826086956521739, 0.2, 0.24347826086956523, 0.0782608695652174, 0.0, 0.043478260869565216, 0.02608695652173913, 0.034782608695652174, 0.008695652173913044, 0.008695652173913044, 0.008695652173913044, 0.008695652173913044, 0.008695652173913044;
    ( 10.0 ) 0.008849557522123894, 0.0, 0.008849557522123894, 0.0, 0.0, 0.0, 0.0, 0.09734513274336283, 0.18584070796460178, 0.22123893805309736, 0.25663716814159293, 0.10619469026548672, 0.008849557522123894, 0.017699115044247787, 0.02654867256637168, 0.0, 0.0, 0.008849557522123894, 0.017699115044247787, 0.035398230088495575;
    ( 11.0 ) 0.017857142857142856, 0.0, 0.0, 0.017857142857142856, 0.0, 0.0, 0.03571428571428571, 0.026785714285714284, 0.13392857142857142, 0.16071428571428573, 0.19642857142857142, 0.16964285714285715, 0.07142857142857142, 0.08928571428571429, 0.008928571428571428, 0.008928571428571428, 0.008928571428571428, 0.008928571428571428, 0.017857142857142856, 0.026785714285714284;
    ( 12.0 ) 0.0, 0.009009009009009009, 0.0, 0.0, 0.0, 0.0, 0.009009009009009009, 0.0, 0.02702702702702703, 0.09009009009009009, 0.21621621621621623, 0.3063063063063063, 0.12612612612612611, 0.04504504504504504, 0.05405405405405406, 0.02702702702702703, 0.02702702702702703, 0.009009009009009009, 0.018018018018018018, 0.036036036036036036;
    ( 13.0 ) 0.00847457627118644, 0.0, 0.00847457627118644, 0.0, 0.0, 0.0, 0.0, 0.00847457627118644, 0.01694915254237288, 0.059322033898305086, 0.03389830508474576, 0.19491525423728814, 0.3305084745762712, 0.15254237288135594, 0.05084745762711865, 0.025423728813559324, 0.025423728813559324, 0.00847457627118644, 0.00847457627118644, 0.06779661016949153;
    ( 14.0 ) 0.0, 0.0, 0.0, 0.009345794392523364, 0.0, 0.0, 0.0, 0.0, 0.0, 0.0, 0.018691588785046728, 0.07476635514018691, 0.19626168224299065, 0.2803738317757009, 0.19626168224299065, 0.056074766355140186, 0.028037383177570093, 0.028037383177570093, 0.07476635514018691, 0.037383177570093455;
    ( 15.0 ) 0.008620689655172414, 0.0, 0.0, 0.0, 0.0, 0.0, 0.0, 0.0, 0.0, 0.0, 0.008620689655172414, 0.05172413793103448, 0.09482758620689655, 0.1810344827586207, 0.27586206896551724, 0.1724137931034483, 0.02586206896551724, 0.02586206896551724, 0.0603448275862069, 0.09482758620689655;
    ( 16.0 ) 0.008849557522123894, 0.0, 0.0, 0.0, 0.0, 0.0, 0.0, 0.0, 0.008849557522123894, 0.0, 0.0, 0.0, 0.017699115044247787, 0.07079646017699115, 0.23008849557522124, 0.336283185840708, 0.1415929203539823, 0.08849557522123894, 0.04424778761061947, 0.05309734513274336;
    ( 17.0 ) 0.0, 0.0, 0.0, 0.0, 0.0, 0.0, 0.0, 0.0, 0.0, 0.0, 0.009009009009009009, 0.0, 0.0, 0.04504504504504504, 0.07207207207207207, 0.1981981981981982, 0.4144144144144144, 0.10810810810810811, 0.04504504504504504, 0.10810810810810811;
    ( 18.0 ) 0.008849557522123894, 0.0, 0.0, 0.0, 0.0, 0.0, 0.0, 0.0, 0.0, 0.0, 0.0, 0.0, 0.0, 0.0, 0.0, 0.10619469026548672, 0.23893805309734514, 0.34513274336283184, 0.13274336283185842, 0.168141592920354;
    ( 19.0 ) 0.0, 0.0, 0.0, 0.0, 0.0, 0.0, 0.0, 0.0, 0.0, 0.0, 0.0, 0.0, 0.008064516129032258, 0.0, 0.0, 0.008064516129032258, 0.08064516129032258, 0.3225806451612903, 0.45161290322580644, 0.12903225806451613;

}
probability ( X28 | X37 ) {
    ( 0.0 ) 0.680672268907563, 0.18487394957983194, 0.058823529411764705, 0.025210084033613446, 0.01680672268907563, 0.025210084033613446, 0.0, 0.0, 0.0, 0.0, 0.0, 0.008403361344537815, 0.0, 0.0, 0.0, 0.0, 0.0, 0.0, 0.0, 0.0;
    ( 1.0 ) 0.1896551724137931, 0.3879310344827586, 0.11206896551724138, 0.14655172413793102, 0.07758620689655173, 0.034482758620689655, 0.017241379310344827, 0.0, 0.008620689655172414, 0.008620689655172414, 0.0, 0.0, 0.0, 0.017241379310344827, 0.0, 0.0, 0.0, 0.0, 0.0, 0.0;
    ( 2.0 ) 0.03571428571428571, 0.25892857142857145, 0.29464285714285715, 0.125, 0.11607142857142858, 0.05357142857142857, 0.008928571428571428, 0.05357142857142857, 0.008928571428571428, 0.017857142857142856, 0.017857142857142856, 0.008928571428571428, 0.0, 0.0, 0.0, 0.0, 0.0, 0.0, 0.0, 0.0;
    ( 3.0 ) 0.008928571428571428, 0.017857142857142856, 0.3125, 0.23214285714285715, 0.10714285714285714, 0.10714285714285714, 0.08035714285714286, 0.017857142857142856, 0.008928571428571428, 0.05357142857142857, 0.0, 0.008928571428571428, 0.008928571428571428, 0.008928571428571428, 0.0, 0.0, 0.008928571428571428, 0.0, 0.008928571428571428, 0.008928571428571428;
    ( 4.0 ) 0.0, 0.0, 0.10714285714285714, 0.21428571428571427, 0.24107142857142858, 0.15178571428571427, 0.07142857142857142, 0.08928571428571429, 0.008928571428571428, 0.03571428571428571, 0.008928571428571428, 0.008928571428571428, 0.008928571428571428, 0.017857142857142856, 0.008928571428571428, 0.008928571428571428, 0.008928571428571428, 0.0, 0.008928571428571428, 0.0;
    ( 5.0 ) 0.038834951456310676, 0.02912621359223301, 0.0, 0.13592233009708737, 0.20388349514563106, 0.14563106796116504, 0.11650485436893204, 0.08737864077669903, 0.009708737864077669, 0.05825242718446602, 0.02912621359223301, 0.038834951456310676, 0.009708737864077669, 0.009708737864077669, 0.009708737864077669, 0.009708737864077669, 0.009708737864077669, 0.009708737864077669, 0.0, 0.04854368932038835;
    ( 6.0 ) 0.0, 0.00847457627118644, 0.0423728813559322, 0.03389830508474576, 0.09322033898305085, 0.211864406779661, 0.16101694915254236, 0.11016949152542373, 0.0847457627118644, 0.06779661016949153, 0.025423728813559324, 0.03389830508474576, 0.00847457627118644, 0.025423728813559324, 0.01694915254237288, 0.025423728813559324, 0.0, 0.00847457627118644, 0.00847457627118644, 0.03389830508474576;
    ( 7.0 ) 0.0, 0.01680672268907563, 0.01680672268907563, 0.01680672268907563, 0.008403361344537815, 0.11764705882352941, 0.19327731092436976, 0.16806722689075632, 0.1092436974789916, 0.08403361344537816, 0.07563025210084033, 0.05042016806722689, 0.03361344537815126, 0.0, 0.05042016806722689, 0.0, 0.0, 0.0, 0.01680672268907563, 0.04201680672268908;
    ( 8.0 ) 0.0, 0.0, 0.0, 0.008849557522123894, 0.0, 0.061946902654867256, 0.09734513274336283, 0.168141592920354, 0.23008849557522124, 0.10619469026548672, 0.061946902654867256, 0.04424778761061947, 0.04424778761061947, 0.035398230088495575, 0.035398230088495575, 0.008849557522123894, 0.017699115044247787, 0.02654867256637168, 0.02654867256637168, 0.02654867256637168;
    ( 9.0 ) 0.00980392156862745, 0.0, 0.0, 0.0, 0.0, 0.029411764705882353, 0.11764705882352941, 0.11764705882352941, 0.13725490196078433, 0.16666666666666666, 0.08823529411764706, 0.0784313725490196, 0.0196078431372549, 0.058823529411764705, 0.049019607843137254, 0.0, 0.0196078431372549, 0.0, 0.058823529411764705, 0.049019607843137254;
    ( 10.0 ) 0.009009009009009009, 0.0, 0.009009009009009009, 0.009009009009009009, 0.0, 0.018018018018018018, 0.018018018018018018, 0.02702702702702703, 0.15315315315315314, 0.12612612612612611, 0.18018018018018017, 0.10810810810810811, 0.06306306306306306, 0.05405405405405406, 0.07207207207207207, 0.04504504504504504, 0.02702702702702703, 0.009009009009009009, 0.05405405405405406, 0.018018018018018018;
    ( 11.0 ) 0.008849557522123894, 0.008849557522123894, 0.008849557522123894, 0.0, 0.0, 0.0, 0.017699115044247787, 0.04424778761061947, 0.09734513274336283, 0.11504424778761062, 0.1415929203539823, 0.11504424778761062, 0.1504424778761062, 0.10619469026548672, 0.04424778761061947, 0.035398230088495575, 0.017699115044247787, 0.035398230088495575, 0.0, 0.05309734513274336;
    ( 12.0 ) 0.0, 0.0, 0.009174311926605505, 0.009174311926605505, 0.009174311926605505, 0.0, 0.01834862385321101, 0.009174311926605505, 0.009174311926605505, 0.05504587155963303, 0.09174311926605505, 0.1834862385321101, 0.2018348623853211, 0.08256880733944955, 0.09174311926605505, 0.07339449541284404, 0.027522935779816515, 0.03669724770642202, 0.009174311926605505, 0.08256880733944955;
    ( 13.0 ) 0.0, 0.0, 0.0, 0.0, 0.0, 0.009433962264150943, 0.018867924528301886, 0.009433962264150943, 0.02830188679245283, 0.02830188679245283, 0.02830188679245283, 0.07547169811320754, 0.1509433962264151, 0.2830188679245283, 0.07547169811320754, 0.09433962264150944, 0.02830188679245283, 0.02830188679245283, 0.04716981132075472, 0.09433962264150944;
    ( 14.0 ) 0.0, 0.00847457627118644, 0.0, 0.00847457627118644, 0.0, 0.0, 0.0, 0.00847457627118644, 0.00847457627118644, 0.025423728813559324, 0.0423728813559322, 0.0423728813559322, 0.0423728813559322, 0.11864406779661017, 0.22033898305084745, 0.13559322033898305, 0.11016949152542373, 0.025423728813559324, 0.06779661016949153, 0.13559322033898305;
    ( 15.0 ) 0.0, 0.0, 0.008547008547008548, 0.008547008547008548, 0.0, 0.0, 0.0, 0.0, 0.017094017094017096, 0.02564102564102564, 0.02564102564102564, 0.017094017094017096, 0.042735042735042736, 0.05982905982905983, 0.1794871794871795, 0.28205128205128205, 0.1452991452991453, 0.07692307692307693, 0.07692307692307693, 0.03418803418803419;
    ( 16.0 ) 0.008928571428571428, 0.008928571428571428, 0.0, 0.008928571428571428, 0.008928571428571428, 0.0, 0.0, 0.008928571428571428, 0.008928571428571428, 0.0, 0.017857142857142856, 0.008928571428571428, 0.0, 0.03571428571428571, 0.08928571428571429, 0.19642857142857142, 0.36607142857142855, 0.11607142857142858, 0.03571428571428571, 0.08035714285714286;
    ( 17.0 ) 0.0, 0.0, 0.0, 0.008264462809917356, 0.0, 0.01652892561983471, 0.01652892561983471, 0.008264462809917356, 0.008264462809917356, 0.008264462809917356, 0.03305785123966942, 0.03305785123966942, 0.01652892561983471, 0.05785123966942149, 0.03305785123966942, 0.024793388429752067, 0.0743801652892562, 0.3884297520661157, 0.14049586776859505, 0.1322314049586777;
    ( 18.0 ) 0.025, 0.0, 0.016666666666666666, 0.0, 0.025, 0.041666666666666664, 0.025, 0.008333333333333333, 0.03333333333333333, 0.025, 0.0, 0.06666666666666667, 0.016666666666666666, 0.03333333333333333, 0.05, 0.025, 0.075, 0.11666666666666667, 0.35, 0.06666666666666667;
    ( 19.0 ) 0.0, 0.01680672268907563, 0.008403361344537815, 0.01680672268907563, 0.025210084033613446, 0.025210084033613446, 0.025210084033613446, 0.03361344537815126, 0.04201680672268908, 0.04201680672268908, 0.07563025210084033, 0.03361344537815126, 0.06722689075630252, 0.01680672268907563, 0.07563025210084033, 0.04201680672268908, 0.058823529411764705, 0.10084033613445378, 0.15966386554621848, 0.13445378151260504;

}
probability ( X32 | X41 ) {
    ( 0.0 ) 0.6379310344827587, 0.12931034482758622, 0.07758620689655173, 0.034482758620689655, 0.017241379310344827, 0.008620689655172414, 0.008620689655172414, 0.0, 0.0, 0.0, 0.017241379310344827, 0.0, 0.0, 0.008620689655172414, 0.008620689655172414, 0.008620689655172414, 0.008620689655172414, 0.008620689655172414, 0.0, 0.02586206896551724;
    ( 1.0 ) 0.2975206611570248, 0.2975206611570248, 0.14049586776859505, 0.10743801652892562, 0.04132231404958678, 0.04132231404958678, 0.049586776859504134, 0.01652892561983471, 0.0, 0.008264462809917356, 0.0, 0.0, 0.0, 0.0, 0.0, 0.0, 0.0, 0.0, 0.0, 0.0;
    ( 2.0 ) 0.07339449541284404, 0.28440366972477066, 0.11926605504587157, 0.12844036697247707, 0.14678899082568808, 0.08256880733944955, 0.03669724770642202, 0.045871559633027525, 0.03669724770642202, 0.01834862385321101, 0.0, 0.0, 0.009174311926605505, 0.0, 0.0, 0.009174311926605505, 0.0, 0.0, 0.0, 0.009174311926605505;
    ( 3.0 ) 0.01818181818181818, 0.14545454545454545, 0.19090909090909092, 0.12727272727272726, 0.08181818181818182, 0.1, 0.05454545454545454, 0.12727272727272726, 0.02727272727272727, 0.02727272727272727, 0.03636363636363636, 0.02727272727272727, 0.01818181818181818, 0.0, 0.0, 0.00909090909090909, 0.00909090909090909, 0.0, 0.0, 0.0;
    ( 4.0 ) 0.0, 0.03508771929824561, 0.19298245614035087, 0.12280701754385964, 0.07894736842105263, 0.11403508771929824, 0.11403508771929824, 0.07894736842105263, 0.05263157894736842, 0.043859649122807015, 0.043859649122807015, 0.03508771929824561, 0.02631578947368421, 0.03508771929824561, 0.008771929824561403, 0.017543859649122806, 0.0, 0.0, 0.0, 0.0;
    ( 5.0 ) 0.0, 0.008547008547008548, 0.10256410256410256, 0.1794871794871795, 0.1282051282051282, 0.07692307692307693, 0.08547008547008547, 0.05982905982905983, 0.02564102564102564, 0.05128205128205128, 0.05982905982905983, 0.07692307692307693, 0.07692307692307693, 0.02564102564102564, 0.017094017094017096, 0.008547008547008548, 0.017094017094017096, 0.0, 0.0, 0.0;
    ( 6.0 ) 0.0, 0.008620689655172414, 0.017241379310344827, 0.12931034482758622, 0.12931034482758622, 0.08620689655172414, 0.09482758620689655, 0.06896551724137931, 0.07758620689655173, 0.05172413793103448, 0.09482758620689655, 0.0603448275862069, 0.034482758620689655, 0.04310344827586207, 0.02586206896551724, 0.02586206896551724, 0.017241379310344827, 0.02586206896551724, 0.0, 0.008620689655172414;
    ( 7.0 ) 0.0, 0.0, 0.0, 0.07758620689655173, 0.1810344827586207, 0.10344827586206896, 0.14655172413793102, 0.08620689655172414, 0.0603448275862069, 0.05172413793103448, 0.04310344827586207, 0.05172413793103448, 0.02586206896551724, 0.05172413793103448, 0.05172413793103448, 0.017241379310344827, 0.017241379310344827, 0.02586206896551724, 0.0, 0.008620689655172414;
    ( 8.0 ) 0.0, 0.0, 0.008695652173913044, 0.043478260869565216, 0.09565217391304348, 0.11304347826086956, 0.06086956521739131, 0.09565217391304348, 0.06956521739130435, 0.06956521739130435, 0.017391304347826087, 0.09565217391304348, 0.06086956521739131, 0.08695652173913043, 0.06086956521739131, 0.034782608695652174, 0.043478260869565216, 0.017391304347826087, 0.02608695652173913, 0.0;
    ( 9.0 ) 0.0, 0.0, 0.0, 0.0, 0.0594059405940594, 0.16831683168316833, 0.10891089108910891, 0.06930693069306931, 0.13861386138613863, 0.0594059405940594, 0.0594059405940594, 0.04950495049504951, 0.039603960396039604, 0.0297029702970297, 0.0594059405940594, 0.0891089108910891, 0.0297029702970297, 0.019801980198019802, 0.0, 0.019801980198019802;
    ( 10.0 ) 0.0, 0.0, 0.0, 0.0, 0.0, 0.043859649122807015, 0.07894736842105263, 0.14035087719298245, 0.14035087719298245, 0.09649122807017543, 0.05263157894736842, 0.05263157894736842, 0.043859649122807015, 0.08771929824561403, 0.05263157894736842, 0.06140350877192982, 0.06140350877192982, 0.02631578947368421, 0.05263157894736842, 0.008771929824561403;
    ( 11.0 ) 0.0, 0.0, 0.0, 0.0, 0.009615384615384616, 0.0, 0.04807692307692308, 0.15384615384615385, 0.1346153846153846, 0.125, 0.08653846153846154, 0.07692307692307693, 0.038461538461538464, 0.04807692307692308, 0.04807692307692308, 0.08653846153846154, 0.038461538461538464, 0.038461538461538464, 0.028846153846153848, 0.038461538461538464;
    ( 12.0 ) 0.0, 0.0, 0.0, 0.0, 0.01694915254237288, 0.00847457627118644, 0.00847457627118644, 0.0847457627118644, 0.11016949152542373, 0.13559322033898305, 0.13559322033898305, 0.06779661016949153, 0.11016949152542373, 0.00847457627118644, 0.0423728813559322, 0.025423728813559324, 0.0423728813559322, 0.09322033898305085, 0.0847457627118644, 0.025423728813559324;
    ( 13.0 ) 0.0, 0.0, 0.008620689655172414, 0.0, 0.0, 0.008620689655172414, 0.0, 0.0, 0.07758620689655173, 0.1724137931034483, 0.16379310344827586, 0.12931034482758622, 0.034482758620689655, 0.05172413793103448, 0.04310344827586207, 0.02586206896551724, 0.0603448275862069, 0.04310344827586207, 0.06896551724137931, 0.11206896551724138;
    ( 14.0 ) 0.0, 0.0, 0.0, 0.0, 0.0, 0.02912621359223301, 0.0, 0.0, 0.019417475728155338, 0.019417475728155338, 0.1553398058252427, 0.10679611650485436, 0.1650485436893204, 0.0970873786407767, 0.08737864077669903, 0.02912621359223301, 0.0970873786407767, 0.06796116504854369, 0.04854368932038835, 0.07766990291262135;
    ( 15.0 ) 0.0, 0.0, 0.0, 0.0, 0.0, 0.0, 0.0, 0.0, 0.0, 0.017241379310344827, 0.017241379310344827, 0.11206896551724138, 0.22413793103448276, 0.1810344827586207, 0.07758620689655173, 0.0603448275862069, 0.0603448275862069, 0.06896551724137931, 0.06896551724137931, 0.11206896551724138;
    ( 16.0 ) 0.0, 0.0, 0.008928571428571428, 0.0, 0.0, 0.0, 0.008928571428571428, 0.008928571428571428, 0.0, 0.0, 0.017857142857142856, 0.008928571428571428, 0.11607142857142858, 0.25892857142857145, 0.13392857142857142, 0.11607142857142858, 0.0625, 0.05357142857142857, 0.09821428571428571, 0.10714285714285714;
    ( 17.0 ) 0.0, 0.0, 0.0, 0.0, 0.0, 0.0, 0.0, 0.0, 0.0, 0.0, 0.0, 0.016666666666666666, 0.041666666666666664, 0.016666666666666666, 0.19166666666666668, 0.225, 0.14166666666666666, 0.08333333333333333, 0.10833333333333334, 0.175;
    ( 18.0 ) 0.0, 0.0, 0.0, 0.0, 0.009009009009009009, 0.0, 0.009009009009009009, 0.0, 0.0, 0.009009009009009009, 0.009009009009009009, 0.018018018018018018, 0.009009009009009009, 0.009009009009009009, 0.02702702702702703, 0.11711711711711711, 0.2972972972972973, 0.26126126126126126, 0.08108108108108109, 0.14414414414414414;
    ( 19.0 ) 0.0, 0.008130081300813009, 0.0, 0.008130081300813009, 0.016260162601626018, 0.0, 0.032520325203252036, 0.008130081300813009, 0.056910569105691054, 0.016260162601626018, 0.016260162601626018, 0.008130081300813009, 0.024390243902439025, 0.016260162601626018, 0.06504065040650407, 0.04065040650406504, 0.016260162601626018, 0.18699186991869918, 0.3008130081300813, 0.17886178861788618;

}
probability ( X33 | class ) {
    ( 0 ) 0.057832422586520944, 0.05692167577413479, 0.056010928961748634, 0.04918032786885246, 0.052823315118397086, 0.052367941712204005, 0.050546448087431695, 0.05009107468123861, 0.04599271402550091, 0.04326047358834244, 0.052367941712204005, 0.04735883424408015, 0.052823315118397086, 0.05191256830601093, 0.050546448087431695, 0.05009107468123861, 0.046903460837887066, 0.04553734061930783, 0.04644808743169399, 0.040983606557377046;
    ( 1 ) 0.0, 0.0, 0.0, 0.0, 0.0, 0.0, 0.0, 0.013157894736842105, 0.27631578947368424, 0.25, 0.10526315789473684, 0.11842105263157894, 0.09210526315789473, 0.013157894736842105, 0.07894736842105263, 0.013157894736842105, 0.013157894736842105, 0.013157894736842105, 0.0, 0.013157894736842105;

}
probability ( X34 | X27 ) {
    ( 0.0 ) 0.75, 0.08333333333333333, 0.0, 0.0, 0.0, 0.0, 0.0, 0.0, 0.0, 0.008333333333333333, 0.0, 0.016666666666666666, 0.0, 0.008333333333333333, 0.03333333333333333, 0.008333333333333333, 0.016666666666666666, 0.03333333333333333, 0.016666666666666666, 0.025;
    ( 1.0 ) 0.22321428571428573, 0.4107142857142857, 0.08035714285714286, 0.017857142857142856, 0.0, 0.0, 0.0, 0.0, 0.0, 0.008928571428571428, 0.0, 0.0, 0.017857142857142856, 0.026785714285714284, 0.044642857142857144, 0.0625, 0.017857142857142856, 0.05357142857142857, 0.026785714285714284, 0.008928571428571428;
    ( 2.0 ) 0.008849557522123894, 0.36283185840707965, 0.13274336283185842, 0.02654867256637168, 0.0, 0.0, 0.0, 0.0, 0.008849557522123894, 0.02654867256637168, 0.017699115044247787, 0.02654867256637168, 0.04424778761061947, 0.07079646017699115, 0.061946902654867256, 0.04424778761061947, 0.07079646017699115, 0.035398230088495575, 0.04424778761061947, 0.017699115044247787;
    ( 3.0 ) 0.0, 0.0873015873015873, 0.3253968253968254, 0.09523809523809523, 0.007936507936507936, 0.007936507936507936, 0.0, 0.0, 0.023809523809523808, 0.007936507936507936, 0.047619047619047616, 0.023809523809523808, 0.031746031746031744, 0.07142857142857142, 0.06349206349206349, 0.05555555555555555, 0.05555555555555555, 0.047619047619047616, 0.031746031746031744, 0.015873015873015872;
    ( 4.0 ) 0.0, 0.017699115044247787, 0.30973451327433627, 0.1504424778761062, 0.05309734513274336, 0.017699115044247787, 0.0, 0.0, 0.008849557522123894, 0.035398230088495575, 0.02654867256637168, 0.035398230088495575, 0.02654867256637168, 0.035398230088495575, 0.008849557522123894, 0.09734513274336283, 0.08849557522123894, 0.017699115044247787, 0.035398230088495575, 0.035398230088495575;
    ( 5.0 ) 0.0, 0.0, 0.06306306306306306, 0.34234234234234234, 0.0990990990990991, 0.06306306306306306, 0.0, 0.018018018018018018, 0.009009009009009009, 0.018018018018018018, 0.02702702702702703, 0.009009009009009009, 0.05405405405405406, 0.06306306306306306, 0.06306306306306306, 0.05405405405405406, 0.02702702702702703, 0.02702702702702703, 0.036036036036036036, 0.02702702702702703;
    ( 6.0 ) 0.0, 0.0, 0.008547008547008548, 0.3076923076923077, 0.1452991452991453, 0.07692307692307693, 0.05128205128205128, 0.017094017094017096, 0.008547008547008548, 0.042735042735042736, 0.03418803418803419, 0.042735042735042736, 0.05128205128205128, 0.03418803418803419, 0.042735042735042736, 0.02564102564102564, 0.042735042735042736, 0.017094017094017096, 0.042735042735042736, 0.008547008547008548;
    ( 7.0 ) 0.0, 0.0, 0.0, 0.02654867256637168, 0.3274336283185841, 0.11504424778761062, 0.04424778761061947, 0.05309734513274336, 0.017699115044247787, 0.017699115044247787, 0.035398230088495575, 0.017699115044247787, 0.02654867256637168, 0.07079646017699115, 0.07079646017699115, 0.035398230088495575, 0.04424778761061947, 0.008849557522123894, 0.061946902654867256, 0.02654867256637168;
    ( 8.0 ) 0.0, 0.0, 0.0, 0.017543859649122806, 0.20175438596491227, 0.14035087719298245, 0.043859649122807015, 0.07017543859649122, 0.05263157894736842, 0.043859649122807015, 0.008771929824561403, 0.06140350877192982, 0.07017543859649122, 0.05263157894736842, 0.06140350877192982, 0.03508771929824561, 0.03508771929824561, 0.03508771929824561, 0.03508771929824561, 0.03508771929824561;
    ( 9.0 ) 0.0, 0.0, 0.0, 0.0, 0.11607142857142858, 0.25892857142857145, 0.09821428571428571, 0.044642857142857144, 0.044642857142857144, 0.017857142857142856, 0.0625, 0.026785714285714284, 0.017857142857142856, 0.0625, 0.026785714285714284, 0.09821428571428571, 0.03571428571428571, 0.05357142857142857, 0.026785714285714284, 0.008928571428571428;
    ( 10.0 ) 0.0, 0.0, 0.0, 0.0, 0.017857142857142856, 0.19642857142857142, 0.125, 0.05357142857142857, 0.07142857142857142, 0.0625, 0.03571428571428571, 0.044642857142857144, 0.08035714285714286, 0.0625, 0.03571428571428571, 0.026785714285714284, 0.05357142857142857, 0.07142857142857142, 0.03571428571428571, 0.026785714285714284;
    ( 11.0 ) 0.0, 0.0, 0.0, 0.0, 0.0, 0.11320754716981132, 0.2358490566037736, 0.07547169811320754, 0.09433962264150944, 0.05660377358490566, 0.05660377358490566, 0.02830188679245283, 0.0660377358490566, 0.03773584905660377, 0.05660377358490566, 0.009433962264150943, 0.018867924528301886, 0.05660377358490566, 0.009433962264150943, 0.08490566037735849;
    ( 12.0 ) 0.0, 0.0, 0.0, 0.0, 0.0, 0.0, 0.2543859649122807, 0.14035087719298245, 0.13157894736842105, 0.03508771929824561, 0.03508771929824561, 0.05263157894736842, 0.02631578947368421, 0.043859649122807015, 0.05263157894736842, 0.03508771929824561, 0.03508771929824561, 0.07017543859649122, 0.03508771929824561, 0.05263157894736842;
    ( 13.0 ) 0.0, 0.0, 0.0, 0.0, 0.0, 0.0, 0.1, 0.2, 0.11818181818181818, 0.07272727272727272, 0.12727272727272726, 0.03636363636363636, 0.02727272727272727, 0.00909090909090909, 0.05454545454545454, 0.05454545454545454, 0.06363636363636363, 0.045454545454545456, 0.06363636363636363, 0.02727272727272727;
    ( 14.0 ) 0.0, 0.0, 0.0, 0.0, 0.0, 0.008771929824561403, 0.02631578947368421, 0.2631578947368421, 0.08771929824561403, 0.09649122807017543, 0.06140350877192982, 0.017543859649122806, 0.05263157894736842, 0.06140350877192982, 0.02631578947368421, 0.07017543859649122, 0.06140350877192982, 0.05263157894736842, 0.08771929824561403, 0.02631578947368421;
    ( 15.0 ) 0.0, 0.0, 0.0, 0.0, 0.0, 0.0, 0.008849557522123894, 0.05309734513274336, 0.1504424778761062, 0.12389380530973451, 0.11504424778761062, 0.08849557522123894, 0.07079646017699115, 0.07079646017699115, 0.05309734513274336, 0.035398230088495575, 0.061946902654867256, 0.04424778761061947, 0.07079646017699115, 0.05309734513274336;
    ( 16.0 ) 0.0, 0.0, 0.0, 0.0, 0.0, 0.0, 0.0, 0.0, 0.10256410256410256, 0.2222222222222222, 0.1282051282051282, 0.13675213675213677, 0.13675213675213677, 0.02564102564102564, 0.05128205128205128, 0.03418803418803419, 0.03418803418803419, 0.02564102564102564, 0.05128205128205128, 0.05128205128205128;
    ( 17.0 ) 0.0, 0.0, 0.0, 0.0, 0.0, 0.0, 0.0, 0.0, 0.0, 0.09565217391304348, 0.25217391304347825, 0.11304347826086956, 0.13043478260869565, 0.09565217391304348, 0.034782608695652174, 0.06956521739130435, 0.05217391304347826, 0.034782608695652174, 0.02608695652173913, 0.09565217391304348;
    ( 18.0 ) 0.0, 0.0, 0.0, 0.0, 0.0, 0.0, 0.0, 0.0, 0.0, 0.0, 0.04424778761061947, 0.23893805309734514, 0.12389380530973451, 0.08849557522123894, 0.061946902654867256, 0.09734513274336283, 0.05309734513274336, 0.10619469026548672, 0.07964601769911504, 0.10619469026548672;
    ( 19.0 ) 0.0, 0.0, 0.0, 0.0, 0.0, 0.0, 0.0, 0.0, 0.009345794392523364, 0.0, 0.009345794392523364, 0.018691588785046728, 0.04672897196261682, 0.018691588785046728, 0.12149532710280374, 0.12149532710280374, 0.1588785046728972, 0.16822429906542055, 0.14018691588785046, 0.18691588785046728;

}
probability ( X36 | X9 ) {
    ( 0.0 ) 0.4782608695652174, 0.24347826086956523, 0.008695652173913044, 0.0, 0.02608695652173913, 0.02608695652173913, 0.0, 0.0, 0.0, 0.008695652173913044, 0.017391304347826087, 0.0, 0.034782608695652174, 0.02608695652173913, 0.008695652173913044, 0.02608695652173913, 0.034782608695652174, 0.043478260869565216, 0.017391304347826087, 0.0;
    ( 1.0 ) 0.08181818181818182, 0.15454545454545454, 0.21818181818181817, 0.05454545454545454, 0.02727272727272727, 0.00909090909090909, 0.00909090909090909, 0.03636363636363636, 0.00909090909090909, 0.03636363636363636, 0.01818181818181818, 0.03636363636363636, 0.03636363636363636, 0.045454545454545456, 0.03636363636363636, 0.03636363636363636, 0.03636363636363636, 0.05454545454545454, 0.06363636363636363, 0.0;
    ( 2.0 ) 0.11926605504587157, 0.14678899082568808, 0.14678899082568808, 0.09174311926605505, 0.045871559633027525, 0.027522935779816515, 0.06422018348623854, 0.027522935779816515, 0.009174311926605505, 0.027522935779816515, 0.0, 0.03669724770642202, 0.045871559633027525, 0.045871559633027525, 0.009174311926605505, 0.045871559633027525, 0.009174311926605505, 0.009174311926605505, 0.027522935779816515, 0.06422018348623854;
    ( 3.0 ) 0.0782608695652174, 0.0782608695652174, 0.11304347826086956, 0.19130434782608696, 0.0782608695652174, 0.017391304347826087, 0.043478260869565216, 0.034782608695652174, 0.008695652173913044, 0.008695652173913044, 0.008695652173913044, 0.017391304347826087, 0.043478260869565216, 0.043478260869565216, 0.034782608695652174, 0.043478260869565216, 0.043478260869565216, 0.02608695652173913, 0.034782608695652174, 0.05217391304347826;
    ( 4.0 ) 0.046296296296296294, 0.08333333333333333, 0.09259259259259259, 0.06481481481481481, 0.12962962962962962, 0.05555555555555555, 0.009259259259259259, 0.05555555555555555, 0.009259259259259259, 0.037037037037037035, 0.046296296296296294, 0.027777777777777776, 0.037037037037037035, 0.06481481481481481, 0.009259259259259259, 0.037037037037037035, 0.027777777777777776, 0.06481481481481481, 0.046296296296296294, 0.05555555555555555;
    ( 5.0 ) 0.0673076923076923, 0.0673076923076923, 0.057692307692307696, 0.14423076923076922, 0.057692307692307696, 0.11538461538461539, 0.0673076923076923, 0.038461538461538464, 0.009615384615384616, 0.04807692307692308, 0.057692307692307696, 0.009615384615384616, 0.019230769230769232, 0.028846153846153848, 0.04807692307692308, 0.04807692307692308, 0.019230769230769232, 0.0, 0.057692307692307696, 0.038461538461538464;
    ( 6.0 ) 0.05982905982905983, 0.05128205128205128, 0.1111111111111111, 0.1111111111111111, 0.07692307692307693, 0.09401709401709402, 0.05128205128205128, 0.05128205128205128, 0.05128205128205128, 0.008547008547008548, 0.017094017094017096, 0.042735042735042736, 0.017094017094017096, 0.008547008547008548, 0.017094017094017096, 0.042735042735042736, 0.05982905982905983, 0.042735042735042736, 0.03418803418803419, 0.05128205128205128;
    ( 7.0 ) 0.03636363636363636, 0.03636363636363636, 0.1, 0.12727272727272726, 0.08181818181818182, 0.06363636363636363, 0.09090909090909091, 0.03636363636363636, 0.03636363636363636, 0.0, 0.045454545454545456, 0.045454545454545456, 0.0, 0.05454545454545454, 0.07272727272727272, 0.05454545454545454, 0.02727272727272727, 0.00909090909090909, 0.03636363636363636, 0.045454545454545456;
    ( 8.0 ) 0.034482758620689655, 0.05172413793103448, 0.05172413793103448, 0.06896551724137931, 0.09482758620689655, 0.12931034482758622, 0.15517241379310345, 0.0603448275862069, 0.02586206896551724, 0.02586206896551724, 0.05172413793103448, 0.04310344827586207, 0.02586206896551724, 0.008620689655172414, 0.04310344827586207, 0.008620689655172414, 0.017241379310344827, 0.017241379310344827, 0.008620689655172414, 0.07758620689655173;
    ( 9.0 ) 0.017391304347826087, 0.05217391304347826, 0.034782608695652174, 0.05217391304347826, 0.12173913043478261, 0.08695652173913043, 0.09565217391304348, 0.13043478260869565, 0.06086956521739131, 0.043478260869565216, 0.008695652173913044, 0.017391304347826087, 0.02608695652173913, 0.02608695652173913, 0.02608695652173913, 0.02608695652173913, 0.034782608695652174, 0.034782608695652174, 0.017391304347826087, 0.08695652173913043;
    ( 10.0 ) 0.035398230088495575, 0.02654867256637168, 0.035398230088495575, 0.05309734513274336, 0.11504424778761062, 0.1592920353982301, 0.10619469026548672, 0.1592920353982301, 0.08849557522123894, 0.04424778761061947, 0.017699115044247787, 0.017699115044247787, 0.02654867256637168, 0.017699115044247787, 0.02654867256637168, 0.017699115044247787, 0.02654867256637168, 0.008849557522123894, 0.0, 0.017699115044247787;
    ( 11.0 ) 0.008771929824561403, 0.0, 0.02631578947368421, 0.07017543859649122, 0.07894736842105263, 0.11403508771929824, 0.14035087719298245, 0.09649122807017543, 0.12280701754385964, 0.05263157894736842, 0.07894736842105263, 0.02631578947368421, 0.017543859649122806, 0.03508771929824561, 0.03508771929824561, 0.017543859649122806, 0.043859649122807015, 0.008771929824561403, 0.008771929824561403, 0.017543859649122806;
    ( 12.0 ) 0.008695652173913044, 0.017391304347826087, 0.008695652173913044, 0.008695652173913044, 0.06086956521739131, 0.08695652173913043, 0.10434782608695652, 0.13043478260869565, 0.16521739130434782, 0.13043478260869565, 0.09565217391304348, 0.06086956521739131, 0.017391304347826087, 0.02608695652173913, 0.008695652173913044, 0.02608695652173913, 0.017391304347826087, 0.0, 0.02608695652173913, 0.0;
    ( 13.0 ) 0.0, 0.016260162601626018, 0.0, 0.016260162601626018, 0.032520325203252036, 0.032520325203252036, 0.07317073170731707, 0.04878048780487805, 0.16260162601626016, 0.13821138211382114, 0.17073170731707318, 0.22764227642276422, 0.016260162601626018, 0.016260162601626018, 0.04878048780487805, 0.0, 0.0, 0.0, 0.0, 0.0;
    ( 14.0 ) 0.0, 0.00847457627118644, 0.0, 0.0, 0.00847457627118644, 0.03389830508474576, 0.059322033898305086, 0.11864406779661017, 0.16101694915254236, 0.1694915254237288, 0.1440677966101695, 0.1694915254237288, 0.11016949152542373, 0.01694915254237288, 0.0, 0.0, 0.0, 0.0, 0.0, 0.0;
    ( 15.0 ) 0.0, 0.0, 0.0, 0.0, 0.0, 0.0, 0.0, 0.034782608695652174, 0.0782608695652174, 0.17391304347826086, 0.14782608695652175, 0.09565217391304348, 0.28695652173913044, 0.1826086956521739, 0.0, 0.0, 0.0, 0.0, 0.0, 0.0;
    ( 16.0 ) 0.0, 0.0, 0.0, 0.0, 0.0, 0.0, 0.0, 0.00847457627118644, 0.0, 0.03389830508474576, 0.059322033898305086, 0.1440677966101695, 0.2288135593220339, 0.2796610169491525, 0.211864406779661, 0.03389830508474576, 0.0, 0.0, 0.0, 0.0;
    ( 17.0 ) 0.0, 0.0, 0.0, 0.0, 0.0, 0.0, 0.0, 0.0, 0.0, 0.0, 0.01020408163265306, 0.01020408163265306, 0.05102040816326531, 0.11224489795918367, 0.2857142857142857, 0.4387755102040816, 0.09183673469387756, 0.0, 0.0, 0.0;
    ( 18.0 ) 0.0, 0.0, 0.0, 0.0, 0.0, 0.0, 0.0, 0.0, 0.0, 0.0, 0.0, 0.0, 0.0, 0.0, 0.016666666666666666, 0.09166666666666666, 0.5166666666666667, 0.36666666666666664, 0.008333333333333333, 0.0;
    ( 19.0 ) 0.0, 0.0, 0.0, 0.0, 0.0, 0.0, 0.0, 0.0, 0.0, 0.0, 0.0, 0.0, 0.0, 0.0, 0.0, 0.0, 0.008403361344537815, 0.226890756302521, 0.5294117647058824, 0.23529411764705882;

}
probability ( X37 | X21 ) {
    ( 0.0 ) 0.7, 0.15833333333333333, 0.05, 0.016666666666666666, 0.0, 0.025, 0.0, 0.008333333333333333, 0.0, 0.0, 0.008333333333333333, 0.008333333333333333, 0.0, 0.0, 0.0, 0.0, 0.0, 0.0, 0.016666666666666666, 0.008333333333333333;
    ( 1.0 ) 0.20689655172413793, 0.43103448275862066, 0.11206896551724138, 0.034482758620689655, 0.017241379310344827, 0.05172413793103448, 0.02586206896551724, 0.017241379310344827, 0.017241379310344827, 0.017241379310344827, 0.0, 0.017241379310344827, 0.0, 0.0, 0.0, 0.008620689655172414, 0.008620689655172414, 0.0, 0.017241379310344827, 0.017241379310344827;
    ( 2.0 ) 0.06837606837606838, 0.27350427350427353, 0.3333333333333333, 0.08547008547008547, 0.05128205128205128, 0.05128205128205128, 0.017094017094017096, 0.0, 0.008547008547008548, 0.008547008547008548, 0.017094017094017096, 0.008547008547008548, 0.0, 0.0, 0.0, 0.008547008547008548, 0.008547008547008548, 0.0, 0.008547008547008548, 0.05128205128205128;
    ( 3.0 ) 0.017857142857142856, 0.07142857142857142, 0.24107142857142858, 0.3392857142857143, 0.125, 0.026785714285714284, 0.03571428571428571, 0.03571428571428571, 0.008928571428571428, 0.008928571428571428, 0.008928571428571428, 0.008928571428571428, 0.008928571428571428, 0.0, 0.0, 0.0, 0.008928571428571428, 0.0, 0.017857142857142856, 0.03571428571428571;
    ( 4.0 ) 0.008771929824561403, 0.017543859649122806, 0.13157894736842105, 0.24561403508771928, 0.24561403508771928, 0.10526315789473684, 0.043859649122807015, 0.03508771929824561, 0.008771929824561403, 0.008771929824561403, 0.008771929824561403, 0.0, 0.017543859649122806, 0.008771929824561403, 0.0, 0.02631578947368421, 0.008771929824561403, 0.017543859649122806, 0.02631578947368421, 0.03508771929824561;
    ( 5.0 ) 0.0, 0.009259259259259259, 0.07407407407407407, 0.1574074074074074, 0.24074074074074073, 0.2222222222222222, 0.12962962962962962, 0.037037037037037035, 0.027777777777777776, 0.0, 0.0, 0.009259259259259259, 0.018518518518518517, 0.009259259259259259, 0.009259259259259259, 0.0, 0.0, 0.018518518518518517, 0.009259259259259259, 0.027777777777777776;
    ( 6.0 ) 0.0, 0.027522935779816515, 0.009174311926605505, 0.027522935779816515, 0.1651376146788991, 0.1926605504587156, 0.1834862385321101, 0.1559633027522936, 0.07339449541284404, 0.05504587155963303, 0.0, 0.01834862385321101, 0.0, 0.009174311926605505, 0.0, 0.0, 0.0, 0.009174311926605505, 0.009174311926605505, 0.06422018348623854;
    ( 7.0 ) 0.0, 0.0, 0.0, 0.035398230088495575, 0.05309734513274336, 0.10619469026548672, 0.24778761061946902, 0.23008849557522124, 0.12389380530973451, 0.04424778761061947, 0.017699115044247787, 0.0, 0.0, 0.017699115044247787, 0.017699115044247787, 0.008849557522123894, 0.008849557522123894, 0.0, 0.061946902654867256, 0.02654867256637168;
    ( 8.0 ) 0.0, 0.0, 0.008264462809917356, 0.024793388429752067, 0.04132231404958678, 0.049586776859504134, 0.18181818181818182, 0.2727272727272727, 0.14049586776859505, 0.04132231404958678, 0.04132231404958678, 0.04132231404958678, 0.01652892561983471, 0.01652892561983471, 0.008264462809917356, 0.01652892561983471, 0.008264462809917356, 0.024793388429752067, 0.024793388429752067, 0.04132231404958678;
    ( 9.0 ) 0.0, 0.0, 0.008928571428571428, 0.017857142857142856, 0.026785714285714284, 0.03571428571428571, 0.07142857142857142, 0.16071428571428573, 0.24107142857142858, 0.16071428571428573, 0.05357142857142857, 0.05357142857142857, 0.017857142857142856, 0.017857142857142856, 0.017857142857142856, 0.0, 0.0, 0.026785714285714284, 0.017857142857142856, 0.07142857142857142;
    ( 10.0 ) 0.0, 0.0, 0.008771929824561403, 0.0, 0.008771929824561403, 0.008771929824561403, 0.05263157894736842, 0.03508771929824561, 0.20175438596491227, 0.2631578947368421, 0.15789473684210525, 0.07894736842105263, 0.02631578947368421, 0.008771929824561403, 0.017543859649122806, 0.02631578947368421, 0.0, 0.03508771929824561, 0.02631578947368421, 0.043859649122807015;
    ( 11.0 ) 0.0, 0.009259259259259259, 0.0, 0.009259259259259259, 0.018518518518518517, 0.018518518518518517, 0.027777777777777776, 0.027777777777777776, 0.05555555555555555, 0.17592592592592593, 0.26851851851851855, 0.12037037037037036, 0.046296296296296294, 0.027777777777777776, 0.018518518518518517, 0.037037037037037035, 0.018518518518518517, 0.009259259259259259, 0.046296296296296294, 0.06481481481481481;
    ( 12.0 ) 0.0, 0.0, 0.0, 0.0, 0.0, 0.01680672268907563, 0.008403361344537815, 0.01680672268907563, 0.025210084033613446, 0.06722689075630252, 0.2605042016806723, 0.2184873949579832, 0.1092436974789916, 0.08403361344537816, 0.05042016806722689, 0.025210084033613446, 0.025210084033613446, 0.0, 0.025210084033613446, 0.06722689075630252;
    ( 13.0 ) 0.0, 0.0, 0.0, 0.0, 0.0, 0.0, 0.018867924528301886, 0.0, 0.018867924528301886, 0.05660377358490566, 0.07547169811320754, 0.2641509433962264, 0.27358490566037735, 0.0660377358490566, 0.02830188679245283, 0.009433962264150943, 0.02830188679245283, 0.03773584905660377, 0.0660377358490566, 0.05660377358490566;
    ( 14.0 ) 0.0, 0.0, 0.0, 0.0, 0.0, 0.00909090909090909, 0.0, 0.0, 0.00909090909090909, 0.0, 0.03636363636363636, 0.12727272727272726, 0.2818181818181818, 0.23636363636363636, 0.09090909090909091, 0.03636363636363636, 0.01818181818181818, 0.03636363636363636, 0.05454545454545454, 0.06363636363636363;
    ( 15.0 ) 0.0, 0.0, 0.0, 0.0, 0.0, 0.0, 0.0, 0.009433962264150943, 0.02830188679245283, 0.0, 0.018867924528301886, 0.009433962264150943, 0.09433962264150944, 0.3113207547169811, 0.2641509433962264, 0.08490566037735849, 0.03773584905660377, 0.018867924528301886, 0.04716981132075472, 0.07547169811320754;
    ( 16.0 ) 0.0, 0.0, 0.0, 0.0, 0.0, 0.0, 0.0, 0.0, 0.0, 0.0, 0.0, 0.017241379310344827, 0.06896551724137931, 0.10344827586206896, 0.3706896551724138, 0.2413793103448276, 0.04310344827586207, 0.034482758620689655, 0.017241379310344827, 0.10344827586206896;
    ( 17.0 ) 0.0, 0.0, 0.0, 0.0, 0.0, 0.0, 0.0, 0.0, 0.0, 0.0, 0.0, 0.0, 0.0, 0.017094017094017096, 0.1111111111111111, 0.4017094017094017, 0.2564102564102564, 0.07692307692307693, 0.10256410256410256, 0.03418803418803419;
    ( 18.0 ) 0.0, 0.0, 0.0, 0.0, 0.0, 0.0, 0.0, 0.0, 0.0, 0.0, 0.0, 0.0, 0.0, 0.018018018018018018, 0.036036036036036036, 0.08108108108108109, 0.4774774774774775, 0.23423423423423423, 0.07207207207207207, 0.08108108108108109;
    ( 19.0 ) 0.0, 0.0, 0.0, 0.0, 0.008130081300813009, 0.0, 0.0, 0.0, 0.008130081300813009, 0.0, 0.008130081300813009, 0.008130081300813009, 0.008130081300813009, 0.008130081300813009, 0.008130081300813009, 0.008130081300813009, 0.032520325203252036, 0.45528455284552843, 0.36585365853658536, 0.08130081300813008;

}
probability ( X4 | class ) {
    ( 0 ) 0.052367941712204005, 0.04963570127504554, 0.048724954462659384, 0.05373406193078324, 0.05373406193078324, 0.04781420765027322, 0.04918032786885246, 0.044626593806921674, 0.0546448087431694, 0.04644808743169399, 0.0441712204007286, 0.04553734061930783, 0.048724954462659384, 0.04735883424408015, 0.04963570127504554, 0.04918032786885246, 0.056010928961748634, 0.0546448087431694, 0.051001821493624776, 0.052823315118397086;
    ( 1 ) 0.0, 0.0, 0.0, 0.0, 0.0, 0.0, 0.0, 0.0, 0.02631578947368421, 0.17105263157894737, 0.25, 0.19736842105263158, 0.14473684210526316, 0.10526315789473684, 0.05263157894736842, 0.02631578947368421, 0.013157894736842105, 0.013157894736842105, 0.0, 0.0;

}
probability ( X40 | class ) {
    ( 0 ) 0.05327868852459016, 0.05191256830601093, 0.05191256830601093, 0.05009107468123861, 0.0482695810564663, 0.05145719489981785, 0.04918032786885246, 0.050546448087431695, 0.052823315118397086, 0.04599271402550091, 0.04781420765027322, 0.04963570127504554, 0.03825136612021858, 0.040983606557377046, 0.0482695810564663, 0.0546448087431694, 0.052367941712204005, 0.052823315118397086, 0.0546448087431694, 0.05510018214936248;
    ( 1 ) 0.0, 0.0, 0.0, 0.0, 0.0, 0.0, 0.0, 0.0, 0.0, 0.0, 0.0, 0.06578947368421052, 0.3684210526315789, 0.3157894736842105, 0.09210526315789473, 0.039473684210526314, 0.05263157894736842, 0.05263157894736842, 0.013157894736842105, 0.0;

}
probability ( X41 ) {
    table 0.051056338028169015, 0.053257042253521125, 0.047975352112676055, 0.04841549295774648, 0.05017605633802817, 0.05149647887323944, 0.051056338028169015, 0.051056338028169015, 0.050616197183098594, 0.04445422535211268, 0.05017605633802817, 0.045774647887323945, 0.05193661971830986, 0.051056338028169015, 0.04533450704225352, 0.051056338028169015, 0.04929577464788732, 0.0528169014084507, 0.0488556338028169, 0.05413732394366197 ;
}
probability ( X45 | X13 ) {
    ( 0.0 ) 0.5811965811965812, 0.2222222222222222, 0.07692307692307693, 0.03418803418803419, 0.017094017094017096, 0.008547008547008548, 0.017094017094017096, 0.0, 0.0, 0.008547008547008548, 0.0, 0.0, 0.0, 0.008547008547008548, 0.0, 0.0, 0.017094017094017096, 0.0, 0.0, 0.008547008547008548;
    ( 1.0 ) 0.08695652173913043, 0.4782608695652174, 0.14782608695652175, 0.08695652173913043, 0.043478260869565216, 0.008695652173913044, 0.034782608695652174, 0.02608695652173913, 0.0, 0.008695652173913044, 0.0, 0.02608695652173913, 0.008695652173913044, 0.0, 0.0, 0.0, 0.0, 0.043478260869565216, 0.0, 0.0;
    ( 2.0 ) 0.00847457627118644, 0.1694915254237288, 0.3135593220338983, 0.1864406779661017, 0.0423728813559322, 0.11016949152542373, 0.03389830508474576, 0.00847457627118644, 0.0, 0.01694915254237288, 0.01694915254237288, 0.00847457627118644, 0.00847457627118644, 0.0, 0.0, 0.0, 0.00847457627118644, 0.01694915254237288, 0.01694915254237288, 0.03389830508474576;
    ( 3.0 ) 0.008849557522123894, 0.05309734513274336, 0.23893805309734514, 0.21238938053097345, 0.1415929203539823, 0.07964601769911504, 0.008849557522123894, 0.07964601769911504, 0.017699115044247787, 0.02654867256637168, 0.04424778761061947, 0.017699115044247787, 0.017699115044247787, 0.0, 0.008849557522123894, 0.0, 0.0, 0.0, 0.0, 0.04424778761061947;
    ( 4.0 ) 0.0, 0.027777777777777776, 0.05555555555555555, 0.2222222222222222, 0.2037037037037037, 0.16666666666666666, 0.12037037037037036, 0.037037037037037035, 0.06481481481481481, 0.027777777777777776, 0.009259259259259259, 0.0, 0.018518518518518517, 0.0, 0.0, 0.0, 0.009259259259259259, 0.0, 0.009259259259259259, 0.027777777777777776;
    ( 5.0 ) 0.008928571428571428, 0.008928571428571428, 0.05357142857142857, 0.09821428571428571, 0.24107142857142858, 0.13392857142857142, 0.08035714285714286, 0.05357142857142857, 0.026785714285714284, 0.017857142857142856, 0.08035714285714286, 0.0625, 0.017857142857142856, 0.0, 0.026785714285714284, 0.026785714285714284, 0.008928571428571428, 0.008928571428571428, 0.017857142857142856, 0.026785714285714284;
    ( 6.0 ) 0.0, 0.00909090909090909, 0.06363636363636363, 0.03636363636363636, 0.10909090909090909, 0.21818181818181817, 0.13636363636363635, 0.08181818181818182, 0.1, 0.06363636363636363, 0.05454545454545454, 0.01818181818181818, 0.045454545454545456, 0.02727272727272727, 0.0, 0.0, 0.0, 0.00909090909090909, 0.02727272727272727, 0.0;
    ( 7.0 ) 0.027522935779816515, 0.009174311926605505, 0.0, 0.01834862385321101, 0.07339449541284404, 0.11926605504587157, 0.26605504587155965, 0.11009174311926606, 0.11009174311926606, 0.05504587155963303, 0.05504587155963303, 0.045871559633027525, 0.009174311926605505, 0.0, 0.045871559633027525, 0.009174311926605505, 0.009174311926605505, 0.009174311926605505, 0.01834862385321101, 0.009174311926605505;
    ( 8.0 ) 0.008547008547008548, 0.008547008547008548, 0.008547008547008548, 0.02564102564102564, 0.008547008547008548, 0.06837606837606838, 0.13675213675213677, 0.24786324786324787, 0.15384615384615385, 0.10256410256410256, 0.03418803418803419, 0.03418803418803419, 0.03418803418803419, 0.03418803418803419, 0.0, 0.0, 0.017094017094017096, 0.008547008547008548, 0.017094017094017096, 0.05128205128205128;
    ( 9.0 ) 0.02608695652173913, 0.017391304347826087, 0.0, 0.017391304347826087, 0.008695652173913044, 0.017391304347826087, 0.08695652173913043, 0.14782608695652175, 0.21739130434782608, 0.10434782608695652, 0.11304347826086956, 0.06086956521739131, 0.043478260869565216, 0.008695652173913044, 0.043478260869565216, 0.008695652173913044, 0.017391304347826087, 0.008695652173913044, 0.017391304347826087, 0.034782608695652174;
    ( 10.0 ) 0.008849557522123894, 0.017699115044247787, 0.008849557522123894, 0.017699115044247787, 0.035398230088495575, 0.02654867256637168, 0.07079646017699115, 0.08849557522123894, 0.13274336283185842, 0.23893805309734514, 0.10619469026548672, 0.08849557522123894, 0.017699115044247787, 0.035398230088495575, 0.008849557522123894, 0.008849557522123894, 0.008849557522123894, 0.0, 0.035398230088495575, 0.04424778761061947;
    ( 11.0 ) 0.026785714285714284, 0.0, 0.008928571428571428, 0.03571428571428571, 0.017857142857142856, 0.008928571428571428, 0.008928571428571428, 0.03571428571428571, 0.09821428571428571, 0.125, 0.19642857142857142, 0.10714285714285714, 0.09821428571428571, 0.03571428571428571, 0.017857142857142856, 0.026785714285714284, 0.08035714285714286, 0.026785714285714284, 0.026785714285714284, 0.017857142857142856;
    ( 12.0 ) 0.036036036036036036, 0.0, 0.009009009009009009, 0.018018018018018018, 0.009009009009009009, 0.0, 0.018018018018018018, 0.018018018018018018, 0.036036036036036036, 0.08108108108108109, 0.11711711711711711, 0.1981981981981982, 0.09009009009009009, 0.07207207207207207, 0.04504504504504504, 0.07207207207207207, 0.04504504504504504, 0.04504504504504504, 0.05405405405405406, 0.036036036036036036;
    ( 13.0 ) 0.0423728813559322, 0.0, 0.00847457627118644, 0.00847457627118644, 0.0, 0.0, 0.0, 0.0, 0.00847457627118644, 0.05084745762711865, 0.059322033898305086, 0.2542372881355932, 0.1440677966101695, 0.1271186440677966, 0.05084745762711865, 0.07627118644067797, 0.0423728813559322, 0.05084745762711865, 0.05084745762711865, 0.025423728813559324;
    ( 14.0 ) 0.028037383177570093, 0.009345794392523364, 0.0, 0.018691588785046728, 0.009345794392523364, 0.0, 0.0, 0.009345794392523364, 0.028037383177570093, 0.009345794392523364, 0.07476635514018691, 0.07476635514018691, 0.17757009345794392, 0.19626168224299065, 0.11214953271028037, 0.06542056074766354, 0.037383177570093455, 0.037383177570093455, 0.028037383177570093, 0.08411214953271028;
    ( 15.0 ) 0.02586206896551724, 0.0, 0.0, 0.017241379310344827, 0.0, 0.0, 0.0, 0.0, 0.0, 0.008620689655172414, 0.02586206896551724, 0.0603448275862069, 0.09482758620689655, 0.25, 0.1206896551724138, 0.08620689655172414, 0.02586206896551724, 0.05172413793103448, 0.1206896551724138, 0.11206896551724138;
    ( 16.0 ) 0.008849557522123894, 0.0, 0.008849557522123894, 0.0, 0.0, 0.008849557522123894, 0.008849557522123894, 0.008849557522123894, 0.0, 0.008849557522123894, 0.02654867256637168, 0.0, 0.07079646017699115, 0.1504424778761062, 0.35398230088495575, 0.10619469026548672, 0.07964601769911504, 0.07079646017699115, 0.061946902654867256, 0.02654867256637168;
    ( 17.0 ) 0.036036036036036036, 0.0, 0.009009009009009009, 0.0, 0.0, 0.009009009009009009, 0.0, 0.009009009009009009, 0.0, 0.0, 0.009009009009009009, 0.009009009009009009, 0.02702702702702703, 0.05405405405405406, 0.07207207207207207, 0.32432432432432434, 0.1981981981981982, 0.10810810810810811, 0.05405405405405406, 0.08108108108108109;
    ( 18.0 ) 0.035398230088495575, 0.0, 0.0, 0.008849557522123894, 0.0, 0.0, 0.0, 0.0, 0.0, 0.008849557522123894, 0.0, 0.0, 0.017699115044247787, 0.008849557522123894, 0.061946902654867256, 0.168141592920354, 0.25663716814159293, 0.17699115044247787, 0.12389380530973451, 0.13274336283185842;
    ( 19.0 ) 0.0, 0.0, 0.0, 0.0, 0.0, 0.0, 0.0, 0.008064516129032258, 0.0, 0.008064516129032258, 0.0, 0.0, 0.0, 0.0, 0.008064516129032258, 0.024193548387096774, 0.12903225806451613, 0.3629032258064516, 0.28225806451612906, 0.1774193548387097;

}
probability ( X46 | X4 ) {
    ( 0.0 ) 0.40869565217391307, 0.3391304347826087, 0.13043478260869565, 0.02608695652173913, 0.06086956521739131, 0.017391304347826087, 0.0, 0.017391304347826087, 0.0, 0.0, 0.0, 0.0, 0.0, 0.0, 0.0, 0.0, 0.0, 0.0, 0.0, 0.0;
    ( 1.0 ) 0.12844036697247707, 0.14678899082568808, 0.27522935779816515, 0.1559633027522936, 0.11926605504587157, 0.08256880733944955, 0.05504587155963303, 0.027522935779816515, 0.0, 0.009174311926605505, 0.0, 0.0, 0.0, 0.0, 0.0, 0.0, 0.0, 0.0, 0.0, 0.0;
    ( 2.0 ) 0.11214953271028037, 0.12149532710280374, 0.12149532710280374, 0.14953271028037382, 0.1588785046728972, 0.14018691588785046, 0.07476635514018691, 0.056074766355140186, 0.028037383177570093, 0.009345794392523364, 0.028037383177570093, 0.0, 0.0, 0.0, 0.0, 0.0, 0.0, 0.0, 0.0, 0.0;
    ( 3.0 ) 0.1016949152542373, 0.11016949152542373, 0.0847457627118644, 0.1440677966101695, 0.1440677966101695, 0.15254237288135594, 0.06779661016949153, 0.06779661016949153, 0.059322033898305086, 0.05084745762711865, 0.0, 0.00847457627118644, 0.0, 0.0, 0.00847457627118644, 0.0, 0.0, 0.0, 0.0, 0.0;
    ( 4.0 ) 0.059322033898305086, 0.0423728813559322, 0.07627118644067797, 0.09322033898305085, 0.1694915254237288, 0.13559322033898305, 0.13559322033898305, 0.0847457627118644, 0.059322033898305086, 0.059322033898305086, 0.025423728813559324, 0.01694915254237288, 0.01694915254237288, 0.01694915254237288, 0.00847457627118644, 0.0, 0.0, 0.0, 0.0, 0.0;
    ( 5.0 ) 0.047619047619047616, 0.06666666666666667, 0.06666666666666667, 0.0761904761904762, 0.09523809523809523, 0.09523809523809523, 0.21904761904761905, 0.10476190476190476, 0.0761904761904762, 0.01904761904761905, 0.02857142857142857, 0.05714285714285714, 0.009523809523809525, 0.01904761904761905, 0.0, 0.01904761904761905, 0.0, 0.0, 0.0, 0.0;
    ( 6.0 ) 0.06481481481481481, 0.018518518518518517, 0.027777777777777776, 0.06481481481481481, 0.07407407407407407, 0.12962962962962962, 0.12037037037037036, 0.17592592592592593, 0.09259259259259259, 0.05555555555555555, 0.07407407407407407, 0.05555555555555555, 0.018518518518518517, 0.009259259259259259, 0.009259259259259259, 0.009259259259259259, 0.0, 0.0, 0.0, 0.0;
    ( 7.0 ) 0.030612244897959183, 0.02040816326530612, 0.02040816326530612, 0.04081632653061224, 0.030612244897959183, 0.08163265306122448, 0.11224489795918367, 0.10204081632653061, 0.14285714285714285, 0.14285714285714285, 0.09183673469387756, 0.07142857142857142, 0.030612244897959183, 0.061224489795918366, 0.01020408163265306, 0.01020408163265306, 0.0, 0.0, 0.0, 0.0;
    ( 8.0 ) 0.00819672131147541, 0.01639344262295082, 0.03278688524590164, 0.02459016393442623, 0.01639344262295082, 0.07377049180327869, 0.07377049180327869, 0.09836065573770492, 0.13114754098360656, 0.11475409836065574, 0.13934426229508196, 0.05737704918032787, 0.07377049180327869, 0.05737704918032787, 0.040983606557377046, 0.00819672131147541, 0.02459016393442623, 0.00819672131147541, 0.0, 0.0;
    ( 9.0 ) 0.02608695652173913, 0.017391304347826087, 0.02608695652173913, 0.017391304347826087, 0.017391304347826087, 0.043478260869565216, 0.034782608695652174, 0.06956521739130435, 0.13043478260869565, 0.12173913043478261, 0.1826086956521739, 0.0782608695652174, 0.11304347826086956, 0.06956521739130435, 0.02608695652173913, 0.008695652173913044, 0.017391304347826087, 0.0, 0.0, 0.0;
    ( 10.0 ) 0.008620689655172414, 0.008620689655172414, 0.0, 0.008620689655172414, 0.034482758620689655, 0.034482758620689655, 0.04310344827586207, 0.034482758620689655, 0.07758620689655173, 0.14655172413793102, 0.16379310344827586, 0.1896551724137931, 0.08620689655172414, 0.08620689655172414, 0.008620689655172414, 0.02586206896551724, 0.008620689655172414, 0.034482758620689655, 0.0, 0.0;
    ( 11.0 ) 0.008695652173913044, 0.0, 0.02608695652173913, 0.017391304347826087, 0.008695652173913044, 0.02608695652173913, 0.017391304347826087, 0.05217391304347826, 0.10434782608695652, 0.12173913043478261, 0.0782608695652174, 0.1826086956521739, 0.08695652173913043, 0.12173913043478261, 0.06086956521739131, 0.06086956521739131, 0.02608695652173913, 0.0, 0.0, 0.0;
    ( 12.0 ) 0.01694915254237288, 0.00847457627118644, 0.0, 0.03389830508474576, 0.03389830508474576, 0.025423728813559324, 0.01694915254237288, 0.00847457627118644, 0.01694915254237288, 0.03389830508474576, 0.059322033898305086, 0.11864406779661017, 0.211864406779661, 0.19491525423728814, 0.06779661016949153, 0.0847457627118644, 0.06779661016949153, 0.0, 0.0, 0.0;
    ( 13.0 ) 0.0, 0.0, 0.017857142857142856, 0.0, 0.017857142857142856, 0.03571428571428571, 0.008928571428571428, 0.03571428571428571, 0.026785714285714284, 0.017857142857142856, 0.044642857142857144, 0.03571428571428571, 0.13392857142857142, 0.16071428571428573, 0.22321428571428573, 0.0625, 0.13392857142857142, 0.044642857142857144, 0.0, 0.0;
    ( 14.0 ) 0.0, 0.008849557522123894, 0.017699115044247787, 0.017699115044247787, 0.0, 0.0, 0.008849557522123894, 0.008849557522123894, 0.017699115044247787, 0.008849557522123894, 0.035398230088495575, 0.017699115044247787, 0.10619469026548672, 0.07079646017699115, 0.24778761061946902, 0.21238938053097345, 0.10619469026548672, 0.05309734513274336, 0.061946902654867256, 0.0;
    ( 15.0 ) 0.0, 0.0, 0.01818181818181818, 0.01818181818181818, 0.01818181818181818, 0.0, 0.00909090909090909, 0.02727272727272727, 0.00909090909090909, 0.03636363636363636, 0.01818181818181818, 0.07272727272727272, 0.05454545454545454, 0.06363636363636363, 0.11818181818181818, 0.14545454545454545, 0.14545454545454545, 0.13636363636363635, 0.10909090909090909, 0.0;
    ( 16.0 ) 0.0, 0.0, 0.0, 0.016129032258064516, 0.0, 0.008064516129032258, 0.008064516129032258, 0.008064516129032258, 0.008064516129032258, 0.024193548387096774, 0.024193548387096774, 0.03225806451612903, 0.04032258064516129, 0.056451612903225805, 0.056451612903225805, 0.12096774193548387, 0.16129032258064516, 0.2903225806451613, 0.11290322580645161, 0.03225806451612903;
    ( 17.0 ) 0.0, 0.0, 0.0, 0.0, 0.008264462809917356, 0.0, 0.0, 0.0, 0.008264462809917356, 0.0, 0.008264462809917356, 0.01652892561983471, 0.024793388429752067, 0.024793388429752067, 0.049586776859504134, 0.15702479338842976, 0.1652892561983471, 0.256198347107438, 0.2066115702479339, 0.0743801652892562;
    ( 18.0 ) 0.0, 0.0, 0.0, 0.008928571428571428, 0.0, 0.0, 0.0, 0.008928571428571428, 0.008928571428571428, 0.008928571428571428, 0.017857142857142856, 0.008928571428571428, 0.017857142857142856, 0.03571428571428571, 0.03571428571428571, 0.026785714285714284, 0.08928571428571429, 0.08928571428571429, 0.3392857142857143, 0.30357142857142855;
    ( 19.0 ) 0.0, 0.0, 0.0, 0.0, 0.0, 0.0, 0.0, 0.0, 0.008620689655172414, 0.0, 0.008620689655172414, 0.0, 0.008620689655172414, 0.0, 0.034482758620689655, 0.06896551724137931, 0.034482758620689655, 0.02586206896551724, 0.19827586206896552, 0.6120689655172413;

}
probability ( X47 | X13 ) {
    ( 0.0 ) 0.5299145299145299, 0.18803418803418803, 0.1282051282051282, 0.06837606837606838, 0.042735042735042736, 0.02564102564102564, 0.008547008547008548, 0.0, 0.0, 0.0, 0.0, 0.008547008547008548, 0.0, 0.0, 0.0, 0.0, 0.0, 0.0, 0.0, 0.0;
    ( 1.0 ) 0.22608695652173913, 0.22608695652173913, 0.10434782608695652, 0.08695652173913043, 0.06956521739130435, 0.11304347826086956, 0.034782608695652174, 0.0782608695652174, 0.008695652173913044, 0.008695652173913044, 0.0, 0.008695652173913044, 0.017391304347826087, 0.008695652173913044, 0.0, 0.0, 0.0, 0.0, 0.0, 0.008695652173913044;
    ( 2.0 ) 0.1271186440677966, 0.22033898305084745, 0.11864406779661017, 0.16101694915254236, 0.1016949152542373, 0.059322033898305086, 0.05084745762711865, 0.0423728813559322, 0.025423728813559324, 0.01694915254237288, 0.01694915254237288, 0.01694915254237288, 0.01694915254237288, 0.00847457627118644, 0.01694915254237288, 0.0, 0.0, 0.0, 0.0, 0.0;
    ( 3.0 ) 0.04424778761061947, 0.17699115044247787, 0.1592920353982301, 0.1415929203539823, 0.07964601769911504, 0.07964601769911504, 0.061946902654867256, 0.05309734513274336, 0.017699115044247787, 0.035398230088495575, 0.04424778761061947, 0.008849557522123894, 0.0, 0.04424778761061947, 0.035398230088495575, 0.017699115044247787, 0.0, 0.0, 0.0, 0.0;
    ( 4.0 ) 0.018518518518518517, 0.08333333333333333, 0.18518518518518517, 0.14814814814814814, 0.1111111111111111, 0.1111111111111111, 0.09259259259259259, 0.046296296296296294, 0.06481481481481481, 0.027777777777777776, 0.018518518518518517, 0.027777777777777776, 0.009259259259259259, 0.018518518518518517, 0.018518518518518517, 0.0, 0.009259259259259259, 0.009259259259259259, 0.0, 0.0;
    ( 5.0 ) 0.017857142857142856, 0.08035714285714286, 0.16964285714285715, 0.09821428571428571, 0.20535714285714285, 0.07142857142857142, 0.08035714285714286, 0.05357142857142857, 0.026785714285714284, 0.03571428571428571, 0.03571428571428571, 0.05357142857142857, 0.017857142857142856, 0.0, 0.026785714285714284, 0.008928571428571428, 0.0, 0.017857142857142856, 0.0, 0.0;
    ( 6.0 ) 0.0, 0.00909090909090909, 0.045454545454545456, 0.12727272727272726, 0.15454545454545454, 0.08181818181818182, 0.20909090909090908, 0.08181818181818182, 0.07272727272727272, 0.05454545454545454, 0.01818181818181818, 0.01818181818181818, 0.03636363636363636, 0.02727272727272727, 0.02727272727272727, 0.01818181818181818, 0.0, 0.01818181818181818, 0.0, 0.0;
    ( 7.0 ) 0.0, 0.0, 0.027522935779816515, 0.10091743119266056, 0.08256880733944955, 0.13761467889908258, 0.09174311926605505, 0.08256880733944955, 0.07339449541284404, 0.08256880733944955, 0.045871559633027525, 0.03669724770642202, 0.06422018348623854, 0.03669724770642202, 0.01834862385321101, 0.027522935779816515, 0.027522935779816515, 0.027522935779816515, 0.027522935779816515, 0.009174311926605505;
    ( 8.0 ) 0.0, 0.0, 0.008547008547008548, 0.05128205128205128, 0.05982905982905983, 0.11965811965811966, 0.11965811965811966, 0.11965811965811966, 0.09401709401709402, 0.09401709401709402, 0.05128205128205128, 0.05128205128205128, 0.03418803418803419, 0.05982905982905983, 0.017094017094017096, 0.017094017094017096, 0.017094017094017096, 0.03418803418803419, 0.02564102564102564, 0.02564102564102564;
    ( 9.0 ) 0.0, 0.0, 0.008695652173913044, 0.02608695652173913, 0.05217391304347826, 0.06956521739130435, 0.10434782608695652, 0.12173913043478261, 0.10434782608695652, 0.09565217391304348, 0.08695652173913043, 0.05217391304347826, 0.02608695652173913, 0.08695652173913043, 0.043478260869565216, 0.043478260869565216, 0.017391304347826087, 0.008695652173913044, 0.034782608695652174, 0.017391304347826087;
    ( 10.0 ) 0.0, 0.0, 0.0, 0.008849557522123894, 0.02654867256637168, 0.05309734513274336, 0.07079646017699115, 0.07079646017699115, 0.18584070796460178, 0.10619469026548672, 0.12389380530973451, 0.061946902654867256, 0.08849557522123894, 0.035398230088495575, 0.04424778761061947, 0.035398230088495575, 0.008849557522123894, 0.017699115044247787, 0.017699115044247787, 0.04424778761061947;
    ( 11.0 ) 0.0, 0.0, 0.0, 0.0, 0.008928571428571428, 0.05357142857142857, 0.0625, 0.11607142857142858, 0.15178571428571427, 0.09821428571428571, 0.08928571428571429, 0.03571428571428571, 0.09821428571428571, 0.044642857142857144, 0.03571428571428571, 0.044642857142857144, 0.05357142857142857, 0.026785714285714284, 0.0, 0.08035714285714286;
    ( 12.0 ) 0.0, 0.0, 0.0, 0.0, 0.0, 0.018018018018018018, 0.036036036036036036, 0.05405405405405406, 0.12612612612612611, 0.18018018018018017, 0.11711711711711711, 0.12612612612612611, 0.06306306306306306, 0.08108108108108109, 0.07207207207207207, 0.009009009009009009, 0.02702702702702703, 0.018018018018018018, 0.02702702702702703, 0.04504504504504504;
    ( 13.0 ) 0.0, 0.0, 0.0, 0.0, 0.00847457627118644, 0.01694915254237288, 0.0, 0.00847457627118644, 0.059322033898305086, 0.11016949152542373, 0.16101694915254236, 0.1694915254237288, 0.1440677966101695, 0.11016949152542373, 0.03389830508474576, 0.06779661016949153, 0.025423728813559324, 0.025423728813559324, 0.01694915254237288, 0.0423728813559322;
    ( 14.0 ) 0.0, 0.0, 0.0, 0.0, 0.0, 0.0, 0.0, 0.018691588785046728, 0.056074766355140186, 0.07476635514018691, 0.102803738317757, 0.102803738317757, 0.1588785046728972, 0.08411214953271028, 0.09345794392523364, 0.037383177570093455, 0.056074766355140186, 0.028037383177570093, 0.04672897196261682, 0.14018691588785046;
    ( 15.0 ) 0.0, 0.0, 0.0, 0.0, 0.0, 0.0, 0.0, 0.017241379310344827, 0.02586206896551724, 0.017241379310344827, 0.0603448275862069, 0.10344827586206896, 0.14655172413793102, 0.1896551724137931, 0.09482758620689655, 0.09482758620689655, 0.05172413793103448, 0.0603448275862069, 0.02586206896551724, 0.11206896551724138;
    ( 16.0 ) 0.0, 0.0, 0.0, 0.0, 0.0, 0.0, 0.0, 0.0, 0.0, 0.0, 0.017699115044247787, 0.017699115044247787, 0.05309734513274336, 0.13274336283185842, 0.24778761061946902, 0.12389380530973451, 0.09734513274336283, 0.07079646017699115, 0.11504424778761062, 0.12389380530973451;
    ( 17.0 ) 0.0, 0.0, 0.0, 0.0, 0.0, 0.0, 0.0, 0.0, 0.0, 0.0, 0.009009009009009009, 0.018018018018018018, 0.009009009009009009, 0.036036036036036036, 0.17117117117117117, 0.2702702702702703, 0.1891891891891892, 0.14414414414414414, 0.10810810810810811, 0.04504504504504504;
    ( 18.0 ) 0.0, 0.0, 0.0, 0.0, 0.0, 0.0, 0.0, 0.0, 0.0, 0.0, 0.0, 0.017699115044247787, 0.008849557522123894, 0.017699115044247787, 0.035398230088495575, 0.1504424778761062, 0.34513274336283184, 0.22123893805309736, 0.10619469026548672, 0.09734513274336283;
    ( 19.0 ) 0.0, 0.0, 0.0, 0.0, 0.0, 0.0, 0.0, 0.0, 0.0, 0.0, 0.0, 0.0, 0.0, 0.0, 0.008064516129032258, 0.03225806451612903, 0.07258064516129033, 0.24193548387096775, 0.45161290322580644, 0.1935483870967742;

}
probability ( X50 | X53 ) {
    ( 0.0 ) 0.5130434782608696, 0.1565217391304348, 0.06086956521739131, 0.06086956521739131, 0.05217391304347826, 0.034782608695652174, 0.02608695652173913, 0.008695652173913044, 0.017391304347826087, 0.008695652173913044, 0.008695652173913044, 0.017391304347826087, 0.017391304347826087, 0.017391304347826087, 0.0, 0.0, 0.0, 0.0, 0.0, 0.0;
    ( 1.0 ) 0.23140495867768596, 0.30578512396694213, 0.1487603305785124, 0.1652892561983471, 0.049586776859504134, 0.024793388429752067, 0.008264462809917356, 0.024793388429752067, 0.01652892561983471, 0.01652892561983471, 0.008264462809917356, 0.0, 0.0, 0.0, 0.0, 0.0, 0.0, 0.0, 0.0, 0.0;
    ( 2.0 ) 0.13157894736842105, 0.19298245614035087, 0.18421052631578946, 0.12280701754385964, 0.14035087719298245, 0.06140350877192982, 0.06140350877192982, 0.02631578947368421, 0.0, 0.017543859649122806, 0.008771929824561403, 0.008771929824561403, 0.008771929824561403, 0.008771929824561403, 0.0, 0.0, 0.008771929824561403, 0.017543859649122806, 0.0, 0.0;
    ( 3.0 ) 0.0625, 0.125, 0.16964285714285715, 0.22321428571428573, 0.14285714285714285, 0.05357142857142857, 0.026785714285714284, 0.044642857142857144, 0.026785714285714284, 0.03571428571428571, 0.03571428571428571, 0.0, 0.008928571428571428, 0.008928571428571428, 0.0, 0.026785714285714284, 0.008928571428571428, 0.0, 0.0, 0.0;
    ( 4.0 ) 0.02608695652173913, 0.10434782608695652, 0.1391304347826087, 0.09565217391304348, 0.1565217391304348, 0.1826086956521739, 0.12173913043478261, 0.0782608695652174, 0.017391304347826087, 0.017391304347826087, 0.017391304347826087, 0.017391304347826087, 0.008695652173913044, 0.008695652173913044, 0.008695652173913044, 0.0, 0.0, 0.0, 0.0, 0.0;
    ( 5.0 ) 0.01818181818181818, 0.07272727272727272, 0.13636363636363635, 0.17272727272727273, 0.09090909090909091, 0.16363636363636364, 0.10909090909090909, 0.05454545454545454, 0.02727272727272727, 0.01818181818181818, 0.03636363636363636, 0.045454545454545456, 0.00909090909090909, 0.0, 0.01818181818181818, 0.01818181818181818, 0.0, 0.00909090909090909, 0.0, 0.0;
    ( 6.0 ) 0.0, 0.019417475728155338, 0.07766990291262135, 0.0970873786407767, 0.08737864077669903, 0.14563106796116504, 0.1262135922330097, 0.11650485436893204, 0.05825242718446602, 0.019417475728155338, 0.06796116504854369, 0.009708737864077669, 0.04854368932038835, 0.02912621359223301, 0.05825242718446602, 0.009708737864077669, 0.009708737864077669, 0.009708737864077669, 0.009708737864077669, 0.0;
    ( 7.0 ) 0.0, 0.0, 0.05405405405405406, 0.08108108108108109, 0.10810810810810811, 0.09009009009009009, 0.08108108108108109, 0.2072072072072072, 0.11711711711711711, 0.09009009009009009, 0.04504504504504504, 0.04504504504504504, 0.018018018018018018, 0.018018018018018018, 0.009009009009009009, 0.018018018018018018, 0.0, 0.009009009009009009, 0.009009009009009009, 0.0;
    ( 8.0 ) 0.0, 0.00980392156862745, 0.049019607843137254, 0.00980392156862745, 0.0392156862745098, 0.11764705882352941, 0.0784313725490196, 0.13725490196078433, 0.19607843137254902, 0.049019607843137254, 0.09803921568627451, 0.06862745098039216, 0.0, 0.029411764705882353, 0.0392156862745098, 0.029411764705882353, 0.0392156862745098, 0.00980392156862745, 0.0, 0.0;
    ( 9.0 ) 0.0, 0.0, 0.0, 0.018018018018018018, 0.036036036036036036, 0.10810810810810811, 0.10810810810810811, 0.0990990990990991, 0.1891891891891892, 0.13513513513513514, 0.07207207207207207, 0.036036036036036036, 0.02702702702702703, 0.07207207207207207, 0.02702702702702703, 0.04504504504504504, 0.018018018018018018, 0.009009009009009009, 0.0, 0.0;
    ( 10.0 ) 0.0, 0.0, 0.0, 0.009900990099009901, 0.019801980198019802, 0.0891089108910891, 0.07920792079207921, 0.04950495049504951, 0.13861386138613863, 0.09900990099009901, 0.10891089108910891, 0.07920792079207921, 0.06930693069306931, 0.04950495049504951, 0.04950495049504951, 0.06930693069306931, 0.0297029702970297, 0.0297029702970297, 0.019801980198019802, 0.009900990099009901;
    ( 11.0 ) 0.0, 0.0, 0.0, 0.0, 0.0, 0.0, 0.059322033898305086, 0.06779661016949153, 0.07627118644067797, 0.15254237288135594, 0.15254237288135594, 0.09322033898305085, 0.05084745762711865, 0.059322033898305086, 0.025423728813559324, 0.05084745762711865, 0.09322033898305085, 0.059322033898305086, 0.059322033898305086, 0.0;
    ( 12.0 ) 0.0, 0.0, 0.0, 0.0, 0.0, 0.0, 0.008333333333333333, 0.05, 0.11666666666666667, 0.15833333333333333, 0.1, 0.125, 0.1, 0.041666666666666664, 0.025, 0.10833333333333334, 0.05, 0.058333333333333334, 0.058333333333333334, 0.0;
    ( 13.0 ) 0.0, 0.0, 0.0, 0.0, 0.0, 0.0, 0.00909090909090909, 0.06363636363636363, 0.03636363636363636, 0.05454545454545454, 0.13636363636363635, 0.18181818181818182, 0.09090909090909091, 0.07272727272727272, 0.07272727272727272, 0.045454545454545456, 0.10909090909090909, 0.045454545454545456, 0.05454545454545454, 0.02727272727272727;
    ( 14.0 ) 0.0, 0.0, 0.0, 0.0, 0.0, 0.0, 0.0, 0.0, 0.008403361344537815, 0.08403361344537816, 0.07563025210084033, 0.17647058823529413, 0.15126050420168066, 0.05042016806722689, 0.11764705882352941, 0.06722689075630252, 0.08403361344537816, 0.08403361344537816, 0.058823529411764705, 0.04201680672268908;
    ( 15.0 ) 0.0, 0.0, 0.0, 0.0, 0.0, 0.0, 0.0, 0.0, 0.0, 0.008547008547008548, 0.02564102564102564, 0.08547008547008547, 0.15384615384615385, 0.07692307692307693, 0.10256410256410256, 0.07692307692307693, 0.1111111111111111, 0.15384615384615385, 0.13675213675213677, 0.06837606837606838;
    ( 16.0 ) 0.0, 0.0, 0.0, 0.0, 0.0, 0.0, 0.0, 0.0, 0.0, 0.008771929824561403, 0.017543859649122806, 0.02631578947368421, 0.16666666666666666, 0.11403508771929824, 0.07017543859649122, 0.11403508771929824, 0.14035087719298245, 0.07894736842105263, 0.18421052631578946, 0.07894736842105263;
    ( 17.0 ) 0.0, 0.0, 0.0, 0.0, 0.0, 0.0, 0.0, 0.0, 0.0, 0.0, 0.01652892561983471, 0.0, 0.024793388429752067, 0.18181818181818182, 0.09090909090909091, 0.09090909090909091, 0.08264462809917356, 0.17355371900826447, 0.1322314049586777, 0.2066115702479339;
    ( 18.0 ) 0.0, 0.0, 0.0, 0.0, 0.0, 0.0, 0.0, 0.0, 0.0, 0.0, 0.01680672268907563, 0.025210084033613446, 0.058823529411764705, 0.07563025210084033, 0.08403361344537816, 0.06722689075630252, 0.09243697478991597, 0.11764705882352941, 0.19327731092436976, 0.2689075630252101;
    ( 19.0 ) 0.0, 0.0, 0.0, 0.0, 0.0, 0.0, 0.0, 0.0, 0.0, 0.0, 0.01680672268907563, 0.01680672268907563, 0.025210084033613446, 0.06722689075630252, 0.11764705882352941, 0.12605042016806722, 0.13445378151260504, 0.11764705882352941, 0.12605042016806722, 0.25210084033613445;

}
probability ( X52 | X32 ) {
    ( 0.0 ) 0.9916666666666667, 0.008333333333333333, 0.0, 0.0, 0.0, 0.0, 0.0, 0.0, 0.0, 0.0, 0.0, 0.0, 0.0, 0.0, 0.0, 0.0, 0.0, 0.0, 0.0, 0.0;
    ( 1.0 ) 0.009523809523809525, 0.9714285714285714, 0.01904761904761905, 0.0, 0.0, 0.0, 0.0, 0.0, 0.0, 0.0, 0.0, 0.0, 0.0, 0.0, 0.0, 0.0, 0.0, 0.0, 0.0, 0.0;
    ( 2.0 ) 0.0, 0.0, 0.98989898989899, 0.010101010101010102, 0.0, 0.0, 0.0, 0.0, 0.0, 0.0, 0.0, 0.0, 0.0, 0.0, 0.0, 0.0, 0.0, 0.0, 0.0, 0.0;
    ( 3.0 ) 0.0, 0.0, 0.01818181818181818, 0.9545454545454546, 0.02727272727272727, 0.0, 0.0, 0.0, 0.0, 0.0, 0.0, 0.0, 0.0, 0.0, 0.0, 0.0, 0.0, 0.0, 0.0, 0.0;
    ( 4.0 ) 0.0, 0.0, 0.0, 0.008695652173913044, 0.9652173913043478, 0.02608695652173913, 0.0, 0.0, 0.0, 0.0, 0.0, 0.0, 0.0, 0.0, 0.0, 0.0, 0.0, 0.0, 0.0, 0.0;
    ( 5.0 ) 0.0, 0.0, 0.0, 0.0, 0.01818181818181818, 0.9727272727272728, 0.00909090909090909, 0.0, 0.0, 0.0, 0.0, 0.0, 0.0, 0.0, 0.0, 0.0, 0.0, 0.0, 0.0, 0.0;
    ( 6.0 ) 0.0, 0.0, 0.0, 0.0, 0.0, 0.009345794392523364, 0.9813084112149533, 0.009345794392523364, 0.0, 0.0, 0.0, 0.0, 0.0, 0.0, 0.0, 0.0, 0.0, 0.0, 0.0, 0.0;
    ( 7.0 ) 0.0, 0.0, 0.0, 0.0, 0.0, 0.0, 0.008547008547008548, 0.9743589743589743, 0.017094017094017096, 0.0, 0.0, 0.0, 0.0, 0.0, 0.0, 0.0, 0.0, 0.0, 0.0, 0.0;
    ( 8.0 ) 0.0, 0.0, 0.0, 0.0, 0.0, 0.0, 0.0, 0.008695652173913044, 0.9652173913043478, 0.02608695652173913, 0.0, 0.0, 0.0, 0.0, 0.0, 0.0, 0.0, 0.0, 0.0, 0.0;
    ( 9.0 ) 0.0, 0.0, 0.0, 0.0, 0.0, 0.0, 0.0, 0.0, 0.01818181818181818, 0.9636363636363636, 0.01818181818181818, 0.0, 0.0, 0.0, 0.0, 0.0, 0.0, 0.0, 0.0, 0.0;
    ( 10.0 ) 0.0, 0.0, 0.0, 0.0, 0.0, 0.0, 0.0, 0.0, 0.0, 0.008695652173913044, 0.9565217391304348, 0.034782608695652174, 0.0, 0.0, 0.0, 0.0, 0.0, 0.0, 0.0, 0.0;
    ( 11.0 ) 0.0, 0.0, 0.0, 0.0, 0.0, 0.0, 0.0, 0.0, 0.0, 0.0, 0.03571428571428571, 0.9464285714285714, 0.017857142857142856, 0.0, 0.0, 0.0, 0.0, 0.0, 0.0, 0.0;
    ( 12.0 ) 0.0, 0.0, 0.0, 0.0, 0.0, 0.0, 0.0, 0.0, 0.0, 0.0, 0.0, 0.008064516129032258, 0.9596774193548387, 0.03225806451612903, 0.0, 0.0, 0.0, 0.0, 0.0, 0.0;
    ( 13.0 ) 0.0, 0.0, 0.0, 0.0, 0.0, 0.0, 0.0, 0.0, 0.0, 0.0, 0.0, 0.0, 0.025210084033613446, 0.9495798319327731, 0.025210084033613446, 0.0, 0.0, 0.0, 0.0, 0.0;
    ( 14.0 ) 0.0, 0.0, 0.0, 0.0, 0.0, 0.0, 0.0, 0.0, 0.0, 0.0, 0.0, 0.0, 0.0, 0.008771929824561403, 0.9736842105263158, 0.017543859649122806, 0.0, 0.0, 0.0, 0.0;
    ( 15.0 ) 0.0, 0.0, 0.0, 0.0, 0.0, 0.0, 0.0, 0.0, 0.0, 0.0, 0.0, 0.0, 0.0, 0.0, 0.008771929824561403, 0.9385964912280702, 0.05263157894736842, 0.0, 0.0, 0.0;
    ( 16.0 ) 0.0, 0.0, 0.0, 0.0, 0.0, 0.0, 0.0, 0.0, 0.0, 0.0, 0.0, 0.0, 0.0, 0.0, 0.0, 0.05217391304347826, 0.9217391304347826, 0.02608695652173913, 0.0, 0.0;
    ( 17.0 ) 0.0, 0.0, 0.0, 0.0, 0.0, 0.0, 0.0, 0.0, 0.0, 0.0, 0.0, 0.0, 0.0, 0.0, 0.0, 0.0, 0.017094017094017096, 0.9487179487179487, 0.03418803418803419, 0.0;
    ( 18.0 ) 0.0, 0.0, 0.0, 0.0, 0.0, 0.0, 0.0, 0.0, 0.0, 0.0, 0.0, 0.0, 0.0, 0.0, 0.0, 0.0, 0.0, 0.04424778761061947, 0.9026548672566371, 0.05309734513274336;
    ( 19.0 ) 0.0, 0.0, 0.0, 0.0, 0.0, 0.0, 0.0, 0.0, 0.0, 0.0, 0.0, 0.0, 0.0, 0.0, 0.0, 0.0, 0.008264462809917356, 0.0, 0.04132231404958678, 0.9504132231404959;

}
probability ( X53 | X54 ) {
    ( 0.0 ) 0.4576271186440678, 0.23728813559322035, 0.1440677966101695, 0.0847457627118644, 0.025423728813559324, 0.025423728813559324, 0.00847457627118644, 0.01694915254237288, 0.0, 0.0, 0.0, 0.0, 0.0, 0.0, 0.0, 0.0, 0.0, 0.0, 0.0, 0.0;
    ( 1.0 ) 0.19090909090909092, 0.2909090909090909, 0.18181818181818182, 0.08181818181818182, 0.11818181818181818, 0.05454545454545454, 0.05454545454545454, 0.00909090909090909, 0.00909090909090909, 0.00909090909090909, 0.0, 0.0, 0.0, 0.0, 0.0, 0.0, 0.0, 0.0, 0.0, 0.0;
    ( 2.0 ) 0.1, 0.24545454545454545, 0.17272727272727273, 0.17272727272727273, 0.11818181818181818, 0.03636363636363636, 0.07272727272727272, 0.02727272727272727, 0.02727272727272727, 0.01818181818181818, 0.00909090909090909, 0.0, 0.0, 0.0, 0.0, 0.0, 0.0, 0.0, 0.0, 0.0;
    ( 3.0 ) 0.05263157894736842, 0.12280701754385964, 0.17543859649122806, 0.19298245614035087, 0.08771929824561403, 0.10526315789473684, 0.09649122807017543, 0.03508771929824561, 0.043859649122807015, 0.03508771929824561, 0.017543859649122806, 0.02631578947368421, 0.0, 0.0, 0.0, 0.008771929824561403, 0.0, 0.0, 0.0, 0.0;
    ( 4.0 ) 0.04424778761061947, 0.05309734513274336, 0.12389380530973451, 0.17699115044247787, 0.11504424778761062, 0.1592920353982301, 0.061946902654867256, 0.04424778761061947, 0.09734513274336283, 0.035398230088495575, 0.04424778761061947, 0.0, 0.02654867256637168, 0.0, 0.017699115044247787, 0.0, 0.0, 0.0, 0.0, 0.0;
    ( 5.0 ) 0.027777777777777776, 0.046296296296296294, 0.1111111111111111, 0.12037037037037036, 0.09259259259259259, 0.12962962962962962, 0.08333333333333333, 0.12962962962962962, 0.09259259259259259, 0.05555555555555555, 0.05555555555555555, 0.018518518518518517, 0.009259259259259259, 0.018518518518518517, 0.0, 0.0, 0.009259259259259259, 0.0, 0.0, 0.0;
    ( 6.0 ) 0.017094017094017096, 0.03418803418803419, 0.03418803418803419, 0.03418803418803419, 0.11965811965811966, 0.19658119658119658, 0.08547008547008547, 0.11965811965811966, 0.10256410256410256, 0.06837606837606838, 0.042735042735042736, 0.05982905982905983, 0.02564102564102564, 0.008547008547008548, 0.02564102564102564, 0.017094017094017096, 0.008547008547008548, 0.0, 0.0, 0.0;
    ( 7.0 ) 0.018691588785046728, 0.018691588785046728, 0.028037383177570093, 0.028037383177570093, 0.102803738317757, 0.07476635514018691, 0.08411214953271028, 0.1308411214953271, 0.1308411214953271, 0.102803738317757, 0.102803738317757, 0.04672897196261682, 0.037383177570093455, 0.028037383177570093, 0.018691588785046728, 0.018691588785046728, 0.009345794392523364, 0.018691588785046728, 0.0, 0.0;
    ( 8.0 ) 0.0, 0.0, 0.01680672268907563, 0.03361344537815126, 0.06722689075630252, 0.05042016806722689, 0.15966386554621848, 0.13445378151260504, 0.11764705882352941, 0.10084033613445378, 0.06722689075630252, 0.058823529411764705, 0.09243697478991597, 0.025210084033613446, 0.03361344537815126, 0.01680672268907563, 0.025210084033613446, 0.0, 0.0, 0.0;
    ( 9.0 ) 0.017699115044247787, 0.008849557522123894, 0.008849557522123894, 0.02654867256637168, 0.061946902654867256, 0.07079646017699115, 0.10619469026548672, 0.11504424778761062, 0.04424778761061947, 0.1504424778761062, 0.07964601769911504, 0.09734513274336283, 0.07079646017699115, 0.04424778761061947, 0.035398230088495575, 0.035398230088495575, 0.0, 0.008849557522123894, 0.017699115044247787, 0.0;
    ( 10.0 ) 0.0, 0.009174311926605505, 0.009174311926605505, 0.01834862385321101, 0.05504587155963303, 0.045871559633027525, 0.027522935779816515, 0.07339449541284404, 0.10091743119266056, 0.10091743119266056, 0.12844036697247707, 0.11926605504587157, 0.07339449541284404, 0.08256880733944955, 0.05504587155963303, 0.027522935779816515, 0.03669724770642202, 0.01834862385321101, 0.01834862385321101, 0.0;
    ( 11.0 ) 0.018518518518518517, 0.0, 0.0, 0.018518518518518517, 0.05555555555555555, 0.009259259259259259, 0.046296296296296294, 0.08333333333333333, 0.06481481481481481, 0.1111111111111111, 0.1574074074074074, 0.1388888888888889, 0.07407407407407407, 0.06481481481481481, 0.027777777777777776, 0.05555555555555555, 0.037037037037037035, 0.009259259259259259, 0.027777777777777776, 0.0;
    ( 12.0 ) 0.0, 0.010309278350515464, 0.010309278350515464, 0.010309278350515464, 0.010309278350515464, 0.0, 0.0, 0.030927835051546393, 0.030927835051546393, 0.09278350515463918, 0.07216494845360824, 0.12371134020618557, 0.18556701030927836, 0.12371134020618557, 0.13402061855670103, 0.05154639175257732, 0.061855670103092786, 0.030927835051546393, 0.020618556701030927, 0.0;
    ( 13.0 ) 0.026785714285714284, 0.0, 0.0, 0.0, 0.0, 0.008928571428571428, 0.026785714285714284, 0.017857142857142856, 0.044642857142857144, 0.0625, 0.044642857142857144, 0.15178571428571427, 0.16071428571428573, 0.125, 0.0625, 0.13392857142857142, 0.03571428571428571, 0.0625, 0.03571428571428571, 0.0;
    ( 14.0 ) 0.0, 0.0, 0.0, 0.0, 0.0, 0.0, 0.0, 0.016, 0.0, 0.0, 0.048, 0.088, 0.136, 0.144, 0.2, 0.136, 0.104, 0.064, 0.064, 0.0;
    ( 15.0 ) 0.0, 0.0, 0.0, 0.0, 0.0, 0.0, 0.0, 0.0, 0.008547008547008548, 0.008547008547008548, 0.02564102564102564, 0.06837606837606838, 0.13675213675213677, 0.1794871794871795, 0.1623931623931624, 0.1282051282051282, 0.05982905982905983, 0.13675213675213677, 0.08547008547008547, 0.0;
    ( 16.0 ) 0.0, 0.0, 0.0, 0.0, 0.0, 0.0, 0.0, 0.0, 0.0, 0.008547008547008548, 0.008547008547008548, 0.042735042735042736, 0.042735042735042736, 0.10256410256410256, 0.17094017094017094, 0.23076923076923078, 0.13675213675213677, 0.1282051282051282, 0.1111111111111111, 0.017094017094017096;
    ( 17.0 ) 0.008695652173913044, 0.0, 0.0, 0.0, 0.0, 0.0, 0.0, 0.008695652173913044, 0.0, 0.017391304347826087, 0.0, 0.0, 0.0, 0.008695652173913044, 0.0782608695652174, 0.12173913043478261, 0.2782608695652174, 0.25217391304347825, 0.20869565217391303, 0.017391304347826087;
    ( 18.0 ) 0.008130081300813009, 0.0, 0.0, 0.0, 0.0, 0.0, 0.0, 0.0, 0.0, 0.008130081300813009, 0.008130081300813009, 0.008130081300813009, 0.0, 0.0, 0.008130081300813009, 0.032520325203252036, 0.16260162601626016, 0.2926829268292683, 0.34959349593495936, 0.12195121951219512;
    ( 19.0 ) 0.016666666666666666, 0.0, 0.0, 0.0, 0.0, 0.008333333333333333, 0.0, 0.0, 0.0, 0.016666666666666666, 0.0, 0.008333333333333333, 0.0, 0.016666666666666666, 0.008333333333333333, 0.0, 0.016666666666666666, 0.008333333333333333, 0.06666666666666667, 0.8333333333333334;

}
probability ( X54 | X28 ) {
    ( 0.0 ) 0.8403361344537815, 0.15966386554621848, 0.0, 0.0, 0.0, 0.0, 0.0, 0.0, 0.0, 0.0, 0.0, 0.0, 0.0, 0.0, 0.0, 0.0, 0.0, 0.0, 0.0, 0.0;
    ( 1.0 ) 0.1559633027522936, 0.6330275229357798, 0.21100917431192662, 0.0, 0.0, 0.0, 0.0, 0.0, 0.0, 0.0, 0.0, 0.0, 0.0, 0.0, 0.0, 0.0, 0.0, 0.0, 0.0, 0.0;
    ( 2.0 ) 0.0, 0.15789473684210525, 0.5964912280701754, 0.24561403508771928, 0.0, 0.0, 0.0, 0.0, 0.0, 0.0, 0.0, 0.0, 0.0, 0.0, 0.0, 0.0, 0.0, 0.0, 0.0, 0.0;
    ( 3.0 ) 0.0, 0.017699115044247787, 0.12389380530973451, 0.5663716814159292, 0.2920353982300885, 0.0, 0.0, 0.0, 0.0, 0.0, 0.0, 0.0, 0.0, 0.0, 0.0, 0.0, 0.0, 0.0, 0.0, 0.0;
    ( 4.0 ) 0.0, 0.019230769230769232, 0.038461538461538464, 0.14423076923076922, 0.5480769230769231, 0.25, 0.0, 0.0, 0.0, 0.0, 0.0, 0.0, 0.0, 0.0, 0.0, 0.0, 0.0, 0.0, 0.0, 0.0;
    ( 5.0 ) 0.0, 0.0, 0.008403361344537815, 0.058823529411764705, 0.14285714285714285, 0.5378151260504201, 0.25210084033613445, 0.0, 0.0, 0.0, 0.0, 0.0, 0.0, 0.0, 0.0, 0.0, 0.0, 0.0, 0.0, 0.0;
    ( 6.0 ) 0.0, 0.0, 0.0, 0.0, 0.02654867256637168, 0.08849557522123894, 0.6017699115044248, 0.2831858407079646, 0.0, 0.0, 0.0, 0.0, 0.0, 0.0, 0.0, 0.0, 0.0, 0.0, 0.0, 0.0;
    ( 7.0 ) 0.0, 0.0, 0.0, 0.0, 0.009174311926605505, 0.045871559633027525, 0.10091743119266056, 0.5412844036697247, 0.30275229357798167, 0.0, 0.0, 0.0, 0.0, 0.0, 0.0, 0.0, 0.0, 0.0, 0.0, 0.0;
    ( 8.0 ) 0.0, 0.0, 0.0, 0.0, 0.0, 0.02631578947368421, 0.05263157894736842, 0.12280701754385964, 0.5701754385964912, 0.22807017543859648, 0.0, 0.0, 0.0, 0.0, 0.0, 0.0, 0.0, 0.0, 0.0, 0.0;
    ( 9.0 ) 0.008547008547008548, 0.0, 0.0, 0.0, 0.008547008547008548, 0.0, 0.0, 0.008547008547008548, 0.11965811965811966, 0.5811965811965812, 0.27350427350427353, 0.0, 0.0, 0.0, 0.0, 0.0, 0.0, 0.0, 0.0, 0.0;
    ( 10.0 ) 0.0, 0.0, 0.0, 0.0, 0.0, 0.0, 0.0, 0.0, 0.04716981132075472, 0.1320754716981132, 0.5754716981132075, 0.24528301886792453, 0.0, 0.0, 0.0, 0.0, 0.0, 0.0, 0.0, 0.0;
    ( 11.0 ) 0.0, 0.0, 0.0, 0.0, 0.0, 0.0, 0.009259259259259259, 0.0, 0.009259259259259259, 0.027777777777777776, 0.10185185185185185, 0.6111111111111112, 0.24074074074074073, 0.0, 0.0, 0.0, 0.0, 0.0, 0.0, 0.0;
    ( 12.0 ) 0.0, 0.0, 0.0, 0.0, 0.010101010101010102, 0.0, 0.0, 0.0, 0.0, 0.0, 0.030303030303030304, 0.13131313131313133, 0.5959595959595959, 0.23232323232323232, 0.0, 0.0, 0.0, 0.0, 0.0, 0.0;
    ( 13.0 ) 0.0, 0.0, 0.0, 0.0, 0.0, 0.0, 0.0, 0.008771929824561403, 0.0, 0.0, 0.008771929824561403, 0.017543859649122806, 0.07894736842105263, 0.7017543859649122, 0.18421052631578946, 0.0, 0.0, 0.0, 0.0, 0.0;
    ( 14.0 ) 0.0, 0.0, 0.0, 0.0, 0.0, 0.0, 0.0, 0.0, 0.0, 0.0, 0.007936507936507936, 0.007936507936507936, 0.015873015873015872, 0.05555555555555555, 0.7222222222222222, 0.19047619047619047, 0.0, 0.0, 0.0, 0.0;
    ( 15.0 ) 0.0, 0.0, 0.0, 0.0, 0.0, 0.0, 0.0, 0.0, 0.0, 0.008695652173913044, 0.0, 0.0, 0.0, 0.008695652173913044, 0.0782608695652174, 0.7391304347826086, 0.16521739130434782, 0.0, 0.0, 0.0;
    ( 16.0 ) 0.0, 0.0, 0.0, 0.0, 0.0, 0.0, 0.0, 0.0, 0.0, 0.0, 0.0, 0.0, 0.0, 0.0, 0.017543859649122806, 0.07017543859649122, 0.7807017543859649, 0.13157894736842105, 0.0, 0.0;
    ( 17.0 ) 0.0, 0.0, 0.0, 0.0, 0.0, 0.0, 0.0, 0.0, 0.0, 0.0, 0.0, 0.0, 0.0, 0.0, 0.008695652173913044, 0.0, 0.06086956521739131, 0.8, 0.13043478260869565, 0.0;
    ( 18.0 ) 0.0, 0.0, 0.0, 0.0, 0.0, 0.0, 0.008, 0.0, 0.008, 0.008, 0.0, 0.0, 0.0, 0.0, 0.0, 0.0, 0.016, 0.064, 0.84, 0.056;
    ( 19.0 ) 0.0, 0.0, 0.0, 0.0, 0.0, 0.0, 0.0, 0.0, 0.0, 0.0, 0.0, 0.0, 0.008403361344537815, 0.008403361344537815, 0.008403361344537815, 0.0, 0.0, 0.0, 0.025210084033613446, 0.9495798319327731;

}
probability ( X55 | class ) {
